\data\
ngram 1=3774
ngram 2=15791
ngram 3=24210

\1-grams:
-0.6493659	<unk>
-inf	<s>	-0.7385252
-3.0677354	</s>
-2.6359909	I	-0.32371563
-4.2452736	declare	-0.096077375
-4.6111875	resumed	-0.096077375
-1.6402886	the	-0.30432114
-4.6111875	session	-0.096077375
-1.4989964	of	-0.4350186
-2.8657575	European	-0.19118613
-2.7589097	Parliament	-0.29697424
-4.6111875	adjourned	-0.096077375
-2.0325406	on	-0.4092693
-4.6111875	Friday	-0.096077375
-4.0192647	17	-0.096077345
-4.2452736	December	-0.096077375
-3.457212	1999	-0.26187447
-1.319021	,	-0.6056706
-1.6045582	and	-0.26567525
-2.809056	would	-0.2460029
-3.1767828	like	-0.40929577
-3.3227358	once	-0.25910884
-3.5441768	again	-0.11405909
-1.6226324	to	-0.37021467
-3.7986348	wish	-0.1474381
-2.827146	you	-0.18245737
-2.069653	a	-0.20016277
-4.0192647	happy	-0.16600302
-3.1373122	new	-0.1045845
-3.2684503	year	-0.23158333
-1.6439077	in	-0.47544155
-3.5441768	hope	-0.23082806
-1.9028193	that	-0.44463578
-4.2452736	enjoyed	-0.096077375
-4.6111875	pleasant	-0.096077375
-4.6111875	festive	-0.096077375
-3.1767828	period	-0.24176537
-1.4383563	.	-1.8074219
-4.6111875	Although	-0.096077345
-2.3034813	as	-0.32376027
-2.402456	will	-0.2673163
-2.3820982	have	-0.29437158
-4.0192647	seen	-0.096077375
-4.6111875	dreaded	-0.096077375
-4.6111875	'millennium	-0.096077375
-4.6111875	bug	-0.096077375
-2.5037117	'	-0.5322755
-4.2452736	failed	-0.20569788
-4.6111875	materialise	-0.096077375
-3.1767828	still	-0.18597944
-2.9309895	people	-0.20276394
-3.7986348	number	-0.3512209
-2.980647	countries	-0.23071735
-4.2452736	suffered	-0.096077375
-4.6111875	series	-0.096077375
-4.2452736	natural	-0.096077345
-4.0192647	disasters	-0.096077345
-4.0192647	truly	-0.096077375
-2.827146	were	-0.11463318
-4.0192647	dreadful	-0.096077345
-4.6111875	You	-0.096077345
-3.6530302	requested	-0.12963438
-3.0677354	debate	-0.27222592
-2.2049267	this	-0.27775803
-3.457212	subject	-0.14719327
-4.0192647	course	-0.12467881
-3.7986348	next	-0.096077375
-3.7986348	few	-0.096077375
-4.6111875	days	-0.096077375
-3.3847897	during	-0.3404688
-3.7986348	part-session	-0.23749468
-4.6111875	In	-0.096077375
-4.6111875	meantime	-0.096077375
-2.6732275	should	-0.3004245
-4.6111875	observe	-0.096077375
-4.2452736	minute	-0.20569788
-4.6111875	s	-0.096077375
-4.6111875	silence	-0.096077345
-3.457212	Members	-0.12467881
-4.2452736	behalf	-0.20569788
-2.6128294	all	-0.24132371
-4.2452736	victims	-0.096077375
-3.457212	concerned	-0.2968974
-3.3227358	particularly	-0.12467885
-3.0077815	those	-0.18105328
-4.2452736	terrible	-0.096077345
-4.6111875	storms	-0.096077375
-3.5441768	various	-0.11253186
-3.6530302	Union	-0.13632852
-4.6111875	Please	-0.096077345
-3.6530302	rise	-0.21771617
-3.3847897	then	-0.12467881
-1.930041	for	-0.33277714
-2.980647	(	-0.1764152
-4.2452736	The	-0.09841812
-4.0192647	House	-0.11405909
-4.2452736	rose	-0.096077375
-4.0192647	observed	-0.1474381
-2.8657575	)	-0.21815982
-4.2452736	Madam	-0.20569788
-3.3847897	President	-0.19759528
-3.1767828	point	-0.15031716
-3.457212	order	-0.1474381
-2.699953	be	-0.15560482
-4.0192647	aware	-0.096077345
-2.4311752	from	-0.32046568
-4.6111875	press	-0.096077375
-4.0192647	television	-0.096077345
-2.7284317	there	-0.40995002
-3.0677354	been	-0.123605035
-4.6111875	bomb	-0.096077375
-4.6111875	explosions	-0.096077375
-4.6111875	killings	-0.096077375
-4.2452736	Sri	-0.096077375
-4.6111875	Lanka	-0.096077345
-4.6111875	One	-0.096077345
-4.6111875	assassinated	-0.096077375
-2.6732275	very	-0.18307267
-4.0192647	recently	-0.096077345
-2.7589097	was	-0.12883367
-2.809056	Mr	-0.3250721
-4.6111875	Kumar	-0.096077375
-4.6111875	Ponnambalam	-0.096077375
-3.2202024	who	-0.12824106
-3.2202024	had	-0.17020573
-4.6111875	visited	-0.096077375
-3.0367248	just	-0.1764152
-3.3227358	months	-0.13666852
-3.6530302	ago	-0.13666852
-4.6111875	Would	-0.096077375
-2.3090487	it	-0.32052857
-3.5441768	appropriate	-0.096077375
-4.6111875	write	-0.096077375
-3.6530302	letter	-0.13666852
-4.6111875	Lankan	-0.096077375
-4.2452736	expressing	-0.096077375
-3.3847897	's	-0.096077345
-4.0192647	regret	-0.096077345
-2.4540339	at	-0.43078044
-3.0367248	his	-0.14905244
-2.9309895	other	-0.13148072
-4.6111875	violent	-0.096077375
-4.6111875	deaths	-0.096077375
-4.2452736	urging	-0.096077375
-3.1767828	her	-0.13401733
-2.9309895	do	-0.32897446
-4.0192647	everything	-0.096077375
-3.457212	she	-0.096077375
-4.2452736	possibly	-0.096077375
-2.6242557	can	-0.3461766
-4.6111875	seek	-0.096077345
-4.6111875	peaceful	-0.096077375
-4.6111875	reconciliation	-0.096077375
-3.7986348	difficult	-0.2543109
-3.2684503	situation	-0.18377343
-2.809056	?	-1.2609718
-4.6111875	Yes	-0.096077375
-4.6111875	Evans	-0.096077345
-3.3227358	feel	-0.37101895
-2.5308578	an	-0.1573087
-4.0192647	initiative	-0.096077375
-4.2452736	type	-0.16600302
-4.0192647	suggested	-0.096077345
-4.2452736	entirely	-0.096077375
-4.6111875	If	-0.096077345
-4.0192647	agrees	-0.096077345
-3.7986348	shall	-0.13169146
-2.3501554	has	-0.29010406
-3.1767828	your	-0.12271233
-4.6111875	advice	-0.096077375
-2.8460228	about	-0.2537779
-4.6111875	Rule	-0.096077375
-4.6111875	143	-0.096077375
-3.6530302	concerning	-0.12963438
-4.6111875	inadmissibility	-0.096077375
-4.6111875	My	-0.096077375
-3.2202024	question	-0.20528734
-3.7986348	relates	-0.44805843
-3.457212	something	-0.15242308
-3.1767828	come	-0.26722616
-2.8657575	up	-0.2163414
-4.6111875	Thursday	-0.096077345
-2.2229292	which	-0.32892218
-3.7986348	raise	-0.096077375
-4.6111875	That	-0.096077375
-2.069653	is	-0.32793194
-3.7986348	precisely	-0.096077345
-2.9309895	time	-0.24371581
-2.9081392	when	-0.22168663
-3.2684503	may	-0.1432643
-2.8460228	if	-0.31872895
-4.2452736	i.e	-0.20569788
-3.7986348	prior	-0.13666852
-4.0192647	start	-0.096077375
-4.0192647	presentation	-0.096077345
-2.6480517	report	-0.30564693
-4.2452736	This	-0.096077375
-4.0192647	accordance	-0.3231197
-2.2005403	with	-0.40917948
-3.6530302	principles	-0.13666852
-2.4311752	we	-0.3742578
-3.6530302	always	-0.096077375
-4.2452736	upheld	-0.096077375
-4.6111875	Thank	-0.096077375
-4.6111875	Segni	-0.096077375
-2.7284317	so	-0.3382568
-4.6111875	gladly	-0.096077375
-4.6111875	Indeed	-0.096077345
-3.1373122	quite	-0.16099218
-4.2452736	keeping	-0.096077375
-4.6111875	positions	-0.096077375
-3.2202024	adopted	-0.17111166
-4.6111875	Now	-0.096077375
-4.2452736	however	-0.096077345
-3.457212	he	-0.21917973
-4.0192647	go	-0.096077345
-3.457212	before	-0.36384422
-3.5441768	courts	-0.15941828
-2.5598147	more	-0.13458382
-2.6480517	because	-0.28841347
-3.1373122	public	-0.11696764
-4.6111875	prosecutor	-0.096077375
-4.6111875	appealing	-0.096077375
-4.6111875	We	-0.096077375
-3.3227358	know	-0.24292669
-4.0192647	stated	-0.096077375
-3.457212	much	-0.14091463
-3.0077815	many	-0.114934206
-4.2452736	resolutions	-0.096077375
-3.6530302	indeed	-0.12963438
-4.6111875	including	-0.096077375
-4.0192647	specifically	-0.096077375
-3.2684503	last	-0.17745829
-3.5441768	plenary	-0.3900665
-2.6016963	not	-0.21116416
-4.2452736	solely	-0.096077345
-2.809056	legal	-0.2394523
-3.2202024	case	-0.16577603
-4.0192647	wrong	-0.096077345
-4.6111875	Alexander	-0.096077375
-4.6111875	Nikitin	-0.096077375
-4.2452736	accused	-0.20569788
-3.3227358	criminal	-0.3512209
-3.5441768	activity	-0.12467881
-4.6111875	treason	-0.096077375
-2.6480517	our	-0.14399661
-3.7986348	involvement	-0.096077375
-4.6111875	beneficiaries	-0.096077375
-4.2452736	findings	-0.096077375
-4.6111875	These	-0.096077345
-3.457212	form	-0.15529752
-3.5441768	basis	-0.096077345
-3.3227358	programmes	-0.20522417
-4.2452736	protect	-0.096077375
-4.6111875	Barents	-0.096077375
-4.6111875	Sea	-0.096077375
-3.6530302	why	-0.13666852
-3.3227358	ask	-0.28263664
-4.0192647	examine	-0.096077345
-3.7986348	draft	-0.1474381
-4.0192647	setting	-0.16600302
-2.955109	out	-0.21532409
-3.3847897	most	-0.096077375
-3.0077815	important	-0.24184433
-4.0192647	facts	-0.096077375
-3.3227358	make	-0.1563742
-3.5441768	position	-0.11815819
-3.7986348	expressed	-0.1474381
-3.0367248	clear	-0.22336888
-3.6530302	far	-0.12467881
-4.2452736	Russia	-0.096077375
-3.1767828	Mrs	-0.24267842
-4.0192647	Schroedter	-0.1474381
-4.0192647	pleased	-0.1474381
-3.457212	look	-0.15529752
-2.955109	into	-0.13611613
-4.6111875	received	-0.096077375
-3.7986348	firstly	-0.096077375
-4.6111875	compliment	-0.096077375
-3.457212	fact	-0.2142483
-4.2452736	kept	-0.096077375
-4.6111875	word	-0.096077375
-3.1373122	first	-0.11949269
-4.2452736	channels	-0.096077375
-4.2452736	offices	-0.096077375
-3.6530302	increased	-0.096077375
-4.0192647	considerably	-0.096077345
-4.6111875	But	-0.096077375
-2.7434034	my	-0.18307425
-4.2452736	personal	-0.096077375
-3.5441768	request	-0.096077345
-4.2452736	met	-0.096077375
-2.362652	are	-0.20671616
-2.9081392	now	-0.15076043
-2.980647	two	-0.10497521
-4.6111875	Finnish	-0.096077375
-2.7589097	one	-0.20239073
-4.6111875	Portuguese	-0.096077375
-3.0677354	no	-0.12009068
-4.0192647	Dutch	-0.16600302
-4.6111875	channel	-0.096077375
-2.7434034	what	-0.28874093
-3.101132	here	-0.17145637
-3.457212	able	-0.5553409
-4.6111875	follow	-0.096077375
-4.2452736	news	-0.096077345
-3.0367248	too	-0.096077375
-4.2452736	sent	-0.096077375
-3.3227358	place	-0.13296346
-4.6111875	exile	-0.096077375
-3.3227358	every	-0.11815819
-4.6111875	month	-0.096077375
-2.980647	therefore	-0.11589887
-3.7986348	ensure	-0.14719327
-3.7986348	get	-0.16600302
-3.3227358	well	-0.15242308
-4.6111875	Plooij-van	-0.096077375
-4.6111875	Gorsel	-0.096077375
-4.0192647	tell	-0.1474381
-3.457212	matter	-0.17179303
-4.0192647	agenda	-0.1949277
-4.2452736	Quaestors	-0.16600302
-4.2452736	meeting	-0.096077375
-4.6111875	Wednesday	-0.096077375
-4.6111875	It	-0.096077345
-4.6111875	examined	-0.096077375
-3.3847897	positive	-0.096077375
-3.7986348	light	-0.13666852
-3.3847897	me	-0.17327566
-3.0677354	does	-0.59286773
-4.2452736	adhere	-0.20569788
-4.0192647	health	-0.3231197
-2.955109	safety	-0.25563744
-3.3847897	legislation	-0.11253186
-3.5441768	actually	-0.096077345
-4.2452736	passes	-0.096077375
-4.6111875	Why	-0.096077375
-3.7986348	air	-0.1474381
-3.7986348	quality	-0.2543109
-4.0192647	test	-0.096077345
-3.3847897	done	-0.1671585
-3.5441768	particular	-0.10919073
-4.2452736	building	-0.096077345
-3.1767828	since	-0.18377343
-4.0192647	elected	-0.096077345
-4.6111875	Health	-0.096077375
-4.2452736	Safety	-0.096077375
-4.0192647	Committee	-0.096077345
-3.3847897	1998	-0.15941828
-4.2452736	fire	-0.096077345
-4.6111875	drill	-0.096077375
-3.5441768	either	-0.12099891
-4.0192647	Brussels	-0.096077345
-4.6111875	buildings	-0.096077375
-2.5802507	or	-0.17004527
-4.6111875	Strasbourg	-0.096077375
-4.6111875	instructions	-0.096077375
-4.6111875	staircases	-0.096077375
-3.7986348	improved	-0.12963438
-4.2452736	accident	-0.096077375
-4.6111875	no-smoking	-0.096077375
-3.0367248	areas	-0.20522326
-4.6111875	enforced	-0.096077375
-3.7986348	seems	-0.2543109
-3.7986348	absolutely	-0.096077345
-4.6111875	disgraceful	-0.096077375
-4.2452736	pass	-0.096077375
-3.5441768	ourselves	-0.096077345
-4.6111875	Lynne	-0.096077375
-3.6530302	right	-0.11253186
-4.2452736	check	-0.096077345
-3.2202024	whether	-0.18898657
-2.6359909	also	-0.13237154
-3.7986348	refer	-0.13666852
-4.6111875	College	-0.096077375
-4.2452736	am	-0.096077375
-3.2202024	certain	-0.11253186
-2.9309895	they	-0.32063806
-4.6111875	keen	-0.096077375
-4.0192647	comply	-0.3231197
-3.2684503	regulations	-0.11124373
-3.457212	vote	-0.17314021
-4.6111875	Diez	-0.096077375
-4.6111875	Gonzalez	-0.096077375
-3.6530302	tabled	-0.12467881
-3.7986348	questions	-0.096077375
-4.0192647	opinions	-0.096077345
-4.6111875	Vice-President	-0.096077345
-4.0192647	de	-0.16600302
-4.2452736	Palacio	-0.096077375
-4.2452736	appeared	-0.096077375
-4.6111875	Spanish	-0.096077375
-4.2452736	newspaper	-0.096077375
-4.6111875	competent	-0.096077375
-3.5441768	services	-0.15529752
-4.0192647	included	-0.096077345
-2.9081392	them	-0.21834488
-4.6111875	grounds	-0.096077375
-4.2452736	answered	-0.096077375
-3.7986348	previous	-0.096077345
-4.2452736	reconsider	-0.096077375
-4.2452736	previously	-0.096077375
-4.0192647	referred	-0.3231197
-3.7986348	intervention	-0.096077375
-3.5441768	another	-0.096077375
-4.6111875	occasion	-0.096077375
-2.7749903	these	-0.13368072
-3.2684503	comments	-0.115898915
-4.6111875	ABC	-0.096077375
-4.6111875	18	-0.096077375
-4.6111875	November	-0.096077375
-4.6111875	Berenguer	-0.096077345
-4.6111875	Fuster	-0.096077375
-4.6111875	admit	-0.096077375
-3.6530302	present	-0.11815819
-4.0192647	somewhat	-0.096077345
-4.2452736	confused	-0.096077375
-3.7986348	properly	-0.096077375
-2.8657575	any	-0.10359433
-3.7986348	event	-0.1949277
-4.6111875	presently	-0.096077375
-3.7986348	among	-0.096077375
-4.0192647	requests	-0.3231197
-4.6111875	topical	-0.096077375
-4.0192647	urgent	-0.096077345
-4.6111875	Agenda	-0.096077375
-4.2452736	Prodi	-0.096077375
-3.3227358	Commission	-0.15582527
-3.6530302	political	-0.096077375
-3.3227358	programme	-0.096077375
-4.0192647	whole	-0.12099891
-4.6111875	legislature	-0.096077375
-4.2452736	initially	-0.096077375
-3.1767828	proposal	-0.20532487
-2.187641	by	-0.39068556
-3.2684503	Group	-0.15253204
-4.0192647	Party	-0.16600302
-4.2452736	Socialists	-0.096077375
-3.7986348	unanimously	-0.096077375
-3.7986348	approved	-0.096077375
-4.0192647	Conference	-0.1474381
-4.6111875	Presidents	-0.096077375
-3.7986348	September	-0.1474381
-4.6111875	explicitly	-0.096077375
-3.5441768	accepted	-0.1949277
-4.6111875	reiterated	-0.096077375
-3.5441768	commitment	-0.096077375
-4.6111875	inaugural	-0.096077375
-3.6530302	speech	-0.096077345
-3.6530302	body	-0.096077375
-4.0192647	monopoly	-0.096077345
-4.6111875	Treaties	-0.096077345
-3.5441768	basically	-0.096077345
-4.2452736	dictates	-0.096077375
-3.6530302	legislative	-0.096077375
-3.6530302	five	-0.096077375
-3.101132	years	-0.2766484
-4.6111875	There	-0.096077375
-3.5441768	enough	-0.096077345
-4.6111875	prepare	-0.096077375
-2.7916892	its	-0.114110194
-2.7916892	us	-0.21083152
-3.3847897	become	-0.13281757
-4.2452736	familiar	-0.20569788
-4.2452736	explain	-0.096077345
-3.3847897	citizens	-0.2051381
-4.6111875	To	-0.096077375
-3.457212	end	-0.14142208
-3.5441768	remind	-0.1949277
-4.6111875	resolution	-0.096077375
-4.2452736	15	-0.16600302
-4.6111875	recommended	-0.096077375
-3.457212	presented	-0.18507057
-4.2452736	soon	-0.096077375
-3.3847897	possible	-0.24421154
-4.2452736	believes	-0.096077375
-4.6111875	parliament	-0.096077375
-4.2452736	meant	-0.096077375
-4.6111875	listen	-0.096077375
-4.0192647	reflect	-0.096077345
-4.2452736	justification	-0.096077375
-4.2452736	whatsoever	-0.096077375
-4.0192647	delay	-0.096077345
-3.5441768	believe	-0.20107491
-4.2452736	ready	-0.096077375
-4.6111875	re-establish	-0.096077375
-4.6111875	original	-0.096077375
-3.7986348	agreement	-0.096077375
-2.827146	between	-0.27924925
-4.0192647	proceed	-0.096077345
-3.6530302	manner	-0.096077375
-4.6111875	fulfils	-0.096077375
-4.6111875	duty	-0.096077375
-4.0192647	fellow	-0.096077375
-4.6111875	Applause	-0.096077375
-4.6111875	PSE	-0.096077375
-3.5441768	information	-0.12099891
-4.6111875	correct	-0.096077375
-2.8657575	but	-0.20528014
-4.6111875	PPE-DE	-0.096077375
-4.2452736	grateful	-0.096077345
-4.0192647	item	-0.096077375
-4.6111875	removed	-0.096077375
-4.2452736	addressed	-0.096077375
-3.2684503	issue	-0.18405594
-3.3847897	several	-0.14142208
-3.7986348	times	-0.096077375
-3.457212	already	-0.096077345
-4.6111875	Decisions	-0.096077375
-3.1767828	against	-0.31000927
-3.7986348	tax	-0.096077375
-4.2452736	kind	-0.096077375
-4.6111875	moves	-0.096077375
-3.1767828	taken	-0.12333704
-3.6530302	off	-0.096077375
-4.6111875	Poettering	-0.096077375
-3.6530302	hear	-0.12963438
-4.6111875	Wurtz	-0.096077375
-4.0192647	speaking	-0.096077375
-4.2452736	lot	-0.16600302
-3.7986348	repeat	-0.096077375
-4.2452736	oral	-0.20569788
-3.7986348	Council	-0.115898915
-4.2452736	retained	-0.096077375
-4.0192647	find	-0.096077375
-3.6530302	bodies	-0.096077375
-3.0077815	regarding	-0.3187874
-4.2452736	relatively	-0.096077375
-4.2452736	modest	-0.096077375
-3.2684503	give	-0.11949269
-4.2452736	message	-0.096077375
-3.6530302	opinion	-0.18823977
-3.3847897	after	-0.15941828
-4.6111875	tide	-0.096077375
-4.2452736	feeling	-0.096077375
-4.6111875	generated	-0.096077375
-4.2452736	failure	-0.096077375
-4.6111875	Seattle	-0.096077375
-3.7986348	capital	-0.096077375
-4.0192647	withdrawn	-0.3231197
-4.2452736	rejected	-0.096077375
-4.6111875	164	-0.096077375
-4.0192647	votes	-0.096077345
-4.6111875	166	-0.096077375
-4.6111875	7	-0.096077375
-4.2452736	abstentions	-0.096077375
-4.2452736	thank	-0.12099891
-4.6111875	advertising	-0.096077375
-3.6530302	``	-0.096077345
-4.0192647	favour	-0.096077375
-3.5441768	''	-0.12963438
-4.6111875	Presidency	-0.096077375
-3.6530302	declared	-0.096077375
-3.457212	result	-0.27224025
-4.2452736	room	-0.20569788
-3.0077815	amendments	-0.15419324
-4.2452736	appreciate	-0.096077375
-3.7986348	close	-0.1474381
-3.2202024	business	-0.17935255
-3.457212	might	-0.1474381
-4.2452736	allowed	-0.096077375
-4.2452736	explanation	-0.20569788
-4.6111875	reopen	-0.096077375
-4.0192647	asked	-0.096077345
-4.0192647	floor	-0.20569788
-4.0192647	comment	-0.1474381
-4.6111875	Baron	-0.096077375
-4.6111875	Crespo	-0.096077375
-4.6111875	motion	-0.096077375
-3.6530302	did	-0.2968974
-3.3847897	call	-0.23082806
-3.7986348	decision	-0.096077375
-3.0077815	made	-0.2001416
-3.6530302	let	-0.21771617
-4.2452736	leave	-0.096077375
-4.6111875	Even	-0.096077345
-3.5441768	think	-0.2544857
-4.0192647	entered	-0.16600302
-4.2452736	Minutes	-0.12963438
-4.6111875	When	-0.096077345
-4.2452736	adopt	-0.20569788
-2.8864315	today	-0.24590707
-3.7986348	sitting	-0.096077375
-3.7986348	tomorrow	-0.1474381
-4.2452736	explained	-0.096077375
-3.3227358	clearly	-0.115898915
-4.6111875	workable	-0.096077375
-4.0192647	solution	-0.096077345
-4.6111875	Of	-0.096077375
-3.0367248	take	-0.24147734
-3.3227358	account	-0.3788806
-4.2452736	additional	-0.096077375
-4.0192647	explanations	-0.096077345
-3.5441768	better	-0.11815819
-3.0367248	than	-0.13444166
-4.2452736	proceeding	-0.096077375
-3.6530302	extremely	-0.21771617
-4.6111875	time-consuming	-0.096077375
-4.6111875	Cox	-0.096077375
-4.6111875	Hansch	-0.096077375
-4.2452736	acceptable	-0.096077375
-4.6111875	records	-0.096077375
-3.7986348	correctly	-0.1474381
-3.1373122	how	-0.20537372
-4.0192647	voted	-0.096077345
-4.2452736	object	-0.096077375
-4.0192647	ruling	-0.096077345
-3.5441768	accept	-0.2543109
-4.6111875	reservations	-0.096077375
-4.2452736	advisers	-0.12963438
-3.0367248	transport	-0.22250548
-3.6530302	dangerous	-0.13666852
-3.7986348	goods	-0.096077345
-4.6111875	A5-0105/1999	-0.096077375
-4.6111875	Koch	-0.096077375
-3.6530302	Regional	-0.18144839
-4.2452736	Policy	-0.13666852
-4.0192647	Transport	-0.096077375
-4.6111875	Tourism	-0.096077375
-3.2684503	common	-0.15265197
-3.2684503	view	-0.24059646
-4.2452736	adopting	-0.096077375
-3.5441768	directive	-0.1887488
-3.457212	harmonisation	-0.12467881
-3.7986348	examination	-0.1474381
-3.5441768	requirements	-0.22932455
-4.2452736	road	-0.096077345
-3.7986348	rail	-0.13666852
-4.2452736	inland	-0.16600302
-4.0192647	waterways	-0.096077375
-4.6111875	C5-0208/1999	-0.096077375
-2.2663898	-	-0.26906803
-4.6111875	1998/0106	-0.096077375
-4.6111875	COD	-0.096077375
-2.6604574	must	-0.3482757
-3.5441768	ever	-0.12963438
-4.2452736	frequently	-0.096077375
-4.6111875	accidents	-0.096077375
-4.6111875	causing	-0.096077375
-3.5441768	major	-0.12467881
-4.2452736	damage	-0.096077375
-3.6530302	roads	-0.36384422
-4.0192647	railways	-0.2543109
-3.7986348	least	-0.11815819
-4.2452736	partly	-0.096077375
-3.5441768	involved	-0.2968974
-3.5441768	seriously	-0.12467881
-4.6111875	ignorance	-0.096077375
-3.6530302	lack	-0.3512209
-4.0192647	training	-0.096077375
-3.2202024	part	-0.3720345
-4.6111875	drivers	-0.096077375
-3.6530302	others	-0.12963438
-3.5441768	responsible	-0.2968974
-4.6111875	vehicles	-0.096077375
-4.6111875	minor	-0.096077375
-3.3847897	often	-0.11405909
-3.7986348	disaster	-0.096077375
-4.6111875	As	-0.096077375
-4.6111875	Austrian	-0.096077375
-4.6111875	vivid	-0.096077375
-4.6111875	memory	-0.096077375
-4.6111875	catastrophe	-0.096077375
-4.2452736	cost	-0.096077375
-4.0192647	human	-0.096077345
-4.6111875	lives	-0.096077375
-4.6111875	Tauern	-0.096077375
-4.6111875	Tunnel	-0.096077375
-2.9081392	where	-0.18904674
-4.6111875	subsequent	-0.096077375
-2.8864315	work	-0.1868462
-4.6111875	rebuild	-0.096077375
-3.7986348	parts	-0.44805843
-4.6111875	tunnel	-0.096077375
-4.6111875	destroyed	-0.096077375
-4.6111875	continued	-0.096077375
-4.0192647	huge	-0.096077345
-4.6111875	expense	-0.096077375
-4.6111875	renovation	-0.096077375
-3.7986348	project	-0.096077375
-4.6111875	lasted	-0.096077375
-4.2452736	cut	-0.096077375
-4.6111875	route	-0.096077375
-4.6111875	north	-0.096077375
-4.6111875	south	-0.096077375
-3.0077815	Europe	-0.20347194
-4.0192647	traffic	-0.096077345
-4.6111875	diverted	-0.096077375
-4.6111875	stretched	-0.096077375
-4.6111875	patience	-0.096077375
-4.2452736	thousands	-0.20569788
-3.1767828	EU	-0.10587507
-4.2452736	limit	-0.096077375
-4.6111875	hell	-0.096077375
-4.2452736	broke	-0.096077375
-4.6111875	loose	-0.096077375
-3.0077815	some	-0.20526275
-4.6111875	municipalities	-0.096077375
-4.6111875	province	-0.096077375
-4.6111875	Prevention	-0.096077375
-4.6111875	answer	-0.096077375
-3.5441768	step	-0.12963438
-3.3227358	towards	-0.13666852
-4.6111875	well-trained	-0.096077375
-2.8460228	being	-0.107982084
-3.7986348	available	-0.1474381
-3.457212	action	-0.14142208
-3.2684503	good	-0.13829845
-3.0367248	need	-0.33164826
-4.2452736	sure	-0.096077375
-2.8460228	rules	-0.2354178
-4.6111875	transposed	-0.096077375
-2.7916892	Member	-0.6493979
-3.7986348	States	-0.11186157
-3.2684503	even	-0.15115592
-4.6111875	importantly	-0.096077375
-3.5441768	applied	-0.13281757
-4.6111875	afterwards	-0.096077375
-3.457212	yet	-0.12099891
-3.1767828	sector	-0.3398367
-4.2452736	subsequently	-0.096077375
-4.6111875	lament	-0.096077375
-4.0192647	enforcement	-0.16600302
-3.7986348	context	-0.13666852
-3.3847897	Commissioner	-0.25147936
-4.0192647	table	-0.096077345
-4.0192647	text	-0.096077345
-4.6111875	continuing	-0.096077375
-4.2452736	safer	-0.096077375
-4.0192647	transit	-0.16600302
-4.0192647	tunnels	-0.096077345
-3.3227358	future	-0.19759528
-3.6530302	experience	-0.096077375
-2.8460228	such	-0.3203171
-4.2452736	scale	-0.20569788
-4.0192647	congratulate	-0.2142483
-4.0192647	him	-0.096077375
-3.457212	excellent	-0.16747418
-4.2452736	sadly	-0.096077375
-2.7916892	:	-0.16913058
-4.6111875	Paddington	-0.096077375
-4.6111875	crash	-0.096077375
-4.6111875	London	-0.096077375
-4.6111875	Norway	-0.096077375
-4.6111875	aviation	-0.096077375
-4.6111875	crashes	-0.096077375
-3.7986348	involving	-0.096077375
-4.6111875	Erika	-0.096077375
-4.6111875	Brittany	-0.096077375
-2.8657575	within	-0.34141737
-3.7986348	four	-0.096077345
-3.6530302	never	-0.096077375
-3.5441768	granted	-0.096077375
-4.6111875	charged	-0.096077375
-4.2452736	protecting	-0.20569788
-3.7986348	highly	-0.13666852
-4.6111875	motivated	-0.096077375
-4.6111875	qualified	-0.096077375
-4.0192647	rapporteur	-0.16747418
-3.7986348	pointed	-0.44805843
-3.7986348	six	-0.1474381
-4.6111875	ten	-0.096077375
-3.1767828	put	-0.28263664
-3.5441768	forward	-0.11815819
-4.0192647	reading	-0.096077345
-4.6111875	substance	-0.096077375
-2.8657575	support	-0.35132578
-4.6111875	looks	-0.096077375
-4.6111875	enactment	-0.096077375
-3.7986348	provide	-0.096077375
-4.2452736	tool	-0.096077375
-4.6111875	fight	-0.096077375
-4.6111875	safe	-0.096077375
-4.2452736	comes	-0.20569788
-3.7986348	initiatives	-0.2543109
-3.6530302	improve	-0.16802722
-3.457212	area	-0.18022463
-4.0192647	recent	-0.096077375
-4.6111875	events	-0.096077375
-4.2452736	proved	-0.096077375
-4.6111875	exceptionally	-0.096077375
-4.2452736	accurate	-0.096077375
-3.7986348	technical	-0.096077375
-4.2452736	secondly	-0.20569788
-4.0192647	submitted	-0.096077345
-4.6111875	Needless	-0.096077375
-3.3847897	say	-0.20179038
-3.457212	key	-0.11405909
-3.3847897	importance	-0.15242308
-3.3227358	given	-0.21865645
-4.2452736	international	-0.096077375
-3.6530302	nature	-0.13666852
-4.0192647	types	-0.3231197
-4.6111875	advisors	-0.096077375
-4.2452736	harmonised	-0.096077375
-4.6111875	ADR	-0.096077375
-3.5441768	example	-0.12963438
-3.0677354	under	-0.21701531
-2.9309895	way	-0.24739277
-4.6111875	Or	-0.096077375
-4.2452736	ships	-0.096077375
-4.0192647	Eastern	-0.20569788
-4.6111875	moor	-0.096077375
-4.6111875	adjacent	-0.096077375
-3.3227358	over	-0.21917973
-4.6111875	obvious	-0.096077375
-3.7986348	risks	-0.096077375
-4.2452736	entails	-0.096077375
-4.6111875	Furthermore	-0.096077375
-4.6111875	transpired	-0.096077375
-3.5441768	research	-0.1474381
-4.6111875	ports	-0.096077375
-4.6111875	Belgium	-0.096077375
-4.6111875	Finland	-0.096077375
-4.2452736	Japan	-0.096077375
-4.0192647	shown	-0.16600302
-4.2452736	50	-0.096077375
-3.1767828	%	-0.2892478
-4.6111875	containers	-0.096077375
-4.2452736	partially	-0.096077375
-4.0192647	cargo	-0.096077345
-4.6111875	delivered	-0.096077375
-4.6111875	shipment	-0.096077375
-4.0192647	short	-0.096077345
-4.2452736	compulsory	-0.096077375
-4.6111875	employ	-0.096077375
-3.0367248	companies	-0.13464712
-3.457212	1	-0.15265197
-4.2452736	January	-0.096077345
-3.101132	problems	-0.191778
-4.6111875	enforcing	-0.096077375
-4.2452736	rule	-0.096077375
-4.0192647	especially	-0.096077375
-4.2452736	smaller	-0.20569788
-4.2452736	afford	-0.096077345
-4.6111875	dispose	-0.096077375
-2.7749903	their	-0.11253186
-4.6111875	mix	-0.096077375
-4.2452736	causes	-0.096077375
-4.6111875	ISO	-0.096077375
-4.6111875	9002	-0.096077375
-4.2452736	certificates	-0.096077375
-3.7986348	include	-0.096077375
-4.6111875	finer	-0.096077375
-4.0192647	details	-0.096077345
-3.7986348	activities	-0.096077375
-3.7986348	annual	-0.096077375
-3.457212	reports	-0.12467881
-3.6530302	company	-0.096077375
-4.6111875	analyses	-0.096077375
-4.2452736	All	-0.096077375
-4.0192647	remains	-0.096077345
-3.7986348	mention	-0.096077375
-4.0192647	final	-0.096077345
-4.6111875	With	-0.096077345
-3.5441768	regard	-0.12963438
-3.7986348	proper	-0.13666852
-4.0192647	agreements	-0.096077345
-4.2452736	concluded	-0.096077345
-4.0192647	enter	-0.3231197
-4.6111875	treaties	-0.096077375
-3.5441768	deal	-0.30444145
-3.6530302	until	-0.17935255
-4.2452736	July	-0.096077375
-4.2452736	2001	-0.20569788
-4.6111875	eighteen	-0.096077375
-3.6530302	gives	-0.096077375
-4.0192647	competitive	-0.096077345
-4.6111875	edge	-0.096077375
-4.2452736	interim	-0.096077375
-3.5441768	itself	-0.096077375
-3.7986348	anything	-0.096077375
-4.2452736	prioritise	-0.096077375
-3.457212	aspects	-0.36384422
-4.2452736	transported	-0.096077345
-4.0192647	incorporate	-0.096077375
-4.6111875	acquis	-0.096077375
-4.6111875	communautaire	-0.096077375
-4.6111875	acceding	-0.096077375
-3.457212	states	-0.17559178
-4.2452736	highlighted	-0.096077375
-4.2452736	regular	-0.096077345
-4.0192647	rightly	-0.096077345
-3.5441768	increasing	-0.096077375
-4.6111875	volume	-0.096077375
-4.6111875	passing	-0.096077375
-3.1373122	through	-0.20964296
-4.6111875	kinds	-0.096077375
-4.2452736	known	-0.096077375
-4.6111875	unknown	-0.096077375
-4.6111875	employees	-0.096077375
-3.0077815	social	-0.14735119
-3.7986348	environment	-0.1474381
-4.6111875	Those	-0.096077375
-3.5441768	having	-0.12963438
-4.0192647	meet	-0.096077345
-4.2452736	stringent	-0.096077375
-3.7986348	relevant	-0.13666852
-3.3847897	standards	-0.16747418
-3.6530302	laid	-0.3512209
-3.3227358	down	-0.14743806
-4.0192647	Directive	-0.16600302
-4.6111875	95/35/EC	-0.096077375
-3.6530302	seem	-0.17935255
-4.2452736	sufficiently	-0.096077375
-4.6111875	adequate	-0.096077375
-4.6111875	advise	-0.096077375
-4.2452736	organisation	-0.096077375
-4.0192647	reached	-0.096077345
-3.6530302	minimum	-0.2968974
-4.6111875	examinations	-0.096077375
-4.0192647	although	-0.11815819
-4.6111875	preferred	-0.096077375
-3.457212	uniform	-0.17935255
-3.7986348	set	-0.096077375
-4.6111875	modules	-0.096077375
-4.0192647	established	-0.096077345
-3.6530302	equal	-0.096077345
-3.5441768	value	-0.16600302
-4.6111875	internationally	-0.096077375
-4.2452736	feasible	-0.096077375
-4.6111875	Finally	-0.096077375
-3.3227358	amendment	-0.1537394
-4.2452736	perfectly	-0.096077375
-4.6111875	logical	-0.096077375
-4.6111875	wholehearted	-0.096077375
-3.6530302	though	-0.096077375
-4.0192647	nonetheless	-0.096077345
-3.5441768	great	-0.12695901
-4.2452736	significance	-0.096077375
-4.6111875	Firstly	-0.096077375
-4.6111875	convinced	-0.096077375
-3.6530302	fall	-0.096077375
-4.6111875	fertile	-0.096077375
-4.2452736	ground	-0.096077375
-3.3847897	attention	-0.33425453
-4.2452736	paid	-0.096077345
-3.7986348	sea	-0.1474381
-4.6111875	Considering	-0.096077375
-2.980647	only	-0.12906246
-4.6111875	dealing	-0.096077375
-4.6111875	19	-0.096077375
-4.2452736	March	-0.096077375
-4.6111875	responded	-0.096077375
-3.6530302	quickly	-0.13666852
-4.6111875	lag	-0.096077375
-4.2452736	little	-0.096077375
-3.457212	long	-0.096077375
-4.6111875	fault	-0.096077375
-3.7986348	achieve	-0.11253186
-3.7986348	second	-0.12467881
-3.5441768	mentioned	-0.12099891
-3.3847897	concerns	-0.2051758
-3.7986348	principle	-0.1474381
-3.1767828	cases	-0.20526275
-3.3847897	working	-0.17530444
-3.457212	flexibility	-0.2142483
-4.6111875	country-specific	-0.096077375
-4.6111875	However	-0.096077375
-3.2684503	rather	-0.19404466
-4.6111875	sceptical	-0.096077375
-4.6111875	Sweden	-0.096077375
-3.7986348	different	-0.096077375
-3.7986348	Germany	-0.12963438
-4.2452736	Italy	-0.096077375
-4.0192647	Austria	-0.096077345
-3.7986348	live	-0.27228323
-4.2452736	monitor	-0.20569788
-3.7986348	carefully	-0.096077375
-4.6111875	Should	-0.096077345
-4.6111875	inadequate	-0.096077375
-3.3227358	greater	-0.096077375
-3.7986348	want	-0.21771617
-3.1767828	conditions	-0.21317026
-2.46997	competition	-0.42684117
-3.7986348	worse	-0.096077375
-4.6111875	unilaterally	-0.096077375
-4.0192647	keep	-0.096077375
-4.2452736	magnificent	-0.096077375
-3.2684503	cooperation	-0.2992723
-4.0192647	improving	-0.1474381
-4.6111875	texts	-0.096077375
-4.6111875	presenting	-0.096077375
-3.0367248	;	-0.17179303
-4.6111875	aptitude	-0.096077375
-4.6111875	waterway	-0.096077375
-4.2452736	understand	-0.20569788
-3.7986348	institutions	-0.12963438
-4.6111875	cooperate	-0.096077375
-3.5441768	together	-0.2968974
-4.0192647	current	-0.096077345
-3.7986348	group	-0.13666852
-4.2452736	includes	-0.096077375
-4.6111875	practically	-0.096077375
-4.6111875	harmonises	-0.096077375
-3.5441768	proposed	-0.115898915
-4.6111875	date	-0.096077375
-4.6111875	realistic	-0.096077375
-4.6111875	originally	-0.096077375
-4.6111875	bearing	-0.096077375
-4.2452736	mind	-0.096077345
-4.0192647	spent	-0.096077345
-4.0192647	debating	-0.096077375
-4.6111875	Very	-0.096077375
-3.6530302	briefly	-0.13666852
-4.2452736	interventions	-0.096077345
-4.6111875	priorities	-0.096077375
-4.2452736	field	-0.096077375
-4.6111875	Simpson	-0.096077375
-3.2684503	said	-0.096077375
-3.1373122	process	-0.16204023
-4.2452736	margins	-0.096077375
-3.5441768	guarantees	-0.1949277
-3.7986348	day	-0.096077375
-4.6111875	Messrs	-0.096077375
-4.6111875	Rack	-0.096077375
-4.2452736	Swoboda	-0.096077375
-4.0192647	doubtless	-0.096077345
-3.7986348	sensitive	-0.2543109
-4.0192647	effort	-0.096077375
-4.6111875	Therefore	-0.096077375
-3.3847897	see	-0.12780203
-4.6111875	guaranteeing	-0.096077375
-4.0192647	maximum	-0.096077375
-3.7986348	degree	-0.2543109
-3.457212	further	-0.12467881
-3.3847897	consider	-0.23547682
-4.0192647	week	-0.096077345
-4.6111875	holding	-0.096077375
-4.6111875	discuss	-0.096077345
-3.2684503	objectives	-0.19581723
-3.7986348	terms	-0.20569788
-4.0192647	priority	-0.096077375
-3.6530302	objective	-0.1949277
-4.2452736	wait	-0.096077375
-3.6530302	circumstances	-0.12963438
-4.0192647	simply	-0.096077375
-3.7986348	serve	-0.1474381
-3.7986348	demonstrate	-0.1474381
-4.6111875	urgency	-0.096077375
-3.457212	effective	-0.11815819
-4.2452736	response	-0.096077375
-3.5441768	problem	-0.1949277
-4.2452736	appreciation	-0.096077375
-4.0192647	speakers	-0.13666852
-4.2452736	closed	-0.20569788
-4.6111875	12	-0.096077375
-4.6111875	p.m	-0.096077375
-4.6111875	A5-0104/1999	-0.096077375
-4.6111875	amending	-0.096077375
-4.6111875	94/55/EC	-0.096077375
-4.6111875	approximation	-0.096077375
-4.2452736	laws	-0.096077345
-3.5441768	[	-0.2968974
-4.6111875	COM	-0.096077375
-4.2452736	158	-0.096077375
-4.6111875	C5-0004/1999	-0.096077375
-4.6111875	1999/0083	-0.096077375
-4.6111875	]	-0.096077345
-4.6111875	ladies	-0.096077375
-4.6111875	gentlemen	-0.096077375
-3.7986348	force	-0.096077375
-4.2452736	1997	-0.096077345
-4.2452736	contains	-0.20569788
-4.2452736	transitional	-0.096077375
-3.2202024	provisions	-0.1949277
-4.0192647	valid	-0.096077345
-4.6111875	limited	-0.096077375
-3.457212	term	-0.18507057
-4.2452736	validity	-0.096077375
-4.2452736	linked	-0.096077375
-4.6111875	completion	-0.096077375
-3.3227358	specific	-0.11405909
-4.6111875	standardisation	-0.096077375
-4.2452736	CEN	-0.096077375
-4.6111875	Standardisation	-0.096077375
-4.6111875	Delays	-0.096077375
-3.457212	making	-0.096077375
-3.7986348	apply	-0.096077375
-4.6111875	annexes	-0.096077375
-4.6111875	adapted	-0.096077375
-3.7986348	industrial	-0.13666852
-4.2452736	developments	-0.096077375
-3.7986348	job	-0.2543109
-3.7986348	respect	-0.12467881
-4.6111875	amend	-0.096077345
-3.457212	discussion	-0.14142208
-4.6111875	fail	-0.096077375
-4.2452736	obliged	-0.20569788
-3.0677354	national	-0.20747857
-4.6111875	brief	-0.096077375
-4.6111875	completes	-0.096077375
-3.6530302	cause	-0.12963438
-4.0192647	unnecessary	-0.096077345
-4.6111875	uncertainty	-0.096077375
-4.0192647	affect	-0.096077345
-4.0192647	existing	-0.096077345
-3.3847897	Community	-0.12780203
-4.2452736	merely	-0.096077375
-4.6111875	prolongs	-0.096077375
-4.6111875	postponing	-0.096077375
-4.2452736	deadlines	-0.20569788
-4.6111875	deletes	-0.096077375
-4.0192647	longer	-0.096077345
-4.2452736	applicable	-0.1474381
-4.2452736	lays	-0.096077375
-4.0192647	procedures	-0.16600302
-4.0192647	carrying	-0.16600302
-4.6111875	ad	-0.096077375
-4.6111875	hoc	-0.096077375
-4.6111875	transportation	-0.096077375
-4.6111875	b	-0.096077375
-4.6111875	enacting	-0.096077375
-3.457212	less	-0.096077375
-3.2684503	small	-0.3063299
-4.6111875	amounts	-0.096077375
-4.6111875	strictly	-0.096077375
-4.6111875	defined	-0.096077375
-3.3847897	local	-0.096077375
-4.6111875	consequently	-0.096077375
-3.7986348	full	-0.096077375
-3.7986348	subsidiarity	-0.1949277
-4.6111875	obtain	-0.096077375
-3.7986348	powers	-0.096077375
-4.0192647	exercise	-0.096077345
-4.0192647	implementing	-0.096077375
-4.6111875	conferred	-0.096077375
-4.6111875	afresh	-0.096077375
-4.6111875	Decision	-0.096077375
-4.6111875	June	-0.096077375
-4.0192647	discussed	-0.096077345
-4.6111875	dates	-0.096077375
-3.7986348	May	-0.096077375
-3.2684503	could	-0.18647176
-4.6111875	latest	-0.096077375
-4.2452736	comitology	-0.20569788
-3.457212	procedure	-0.1474381
-4.6111875	Two	-0.096077375
-3.5441768	committee	-0.14142208
-4.2452736	relate	-0.096077375
-4.0192647	amended	-0.096077345
-3.6530302	reference	-0.3512209
-4.2452736	early	-0.096077375
-4.6111875	recitals	-0.096077375
-4.6111875	worded	-0.096077375
-3.457212	three	-0.096077375
-4.6111875	addition	-0.096077375
-3.1767828	transparency	-0.20931579
-4.6111875	A	-0.096077375
-4.2452736	intended	-0.096077375
-4.6111875	tanks	-0.096077375
-4.2452736	tankers	-0.096077375
-4.2452736	service	-0.096077375
-4.6111875	entry	-0.096077375
-3.457212	continue	-0.32339275
-3.7986348	used	-0.13666852
-3.5441768	provided	-0.12467881
-4.6111875	constructed	-0.096077375
-4.6111875	maintained	-0.096077375
-4.0192647	realise	-0.16600302
-4.6111875	endorse	-0.096077375
-3.7986348	colleagues	-0.096077375
-4.2452736	millennium	-0.096077345
-4.6111875	exciting	-0.096077375
-4.6111875	love	-0.096077375
-4.6111875	minutes	-0.096077375
-4.6111875	otherwise	-0.096077375
-4.2452736	acts	-0.096077375
-4.2452736	transition	-0.096077375
-3.7986348	mean	-0.096077375
-4.0192647	costs	-0.096077345
-3.5441768	increase	-0.16802722
-3.2684503	concern	-0.11405909
-3.7986348	bureaucracy	-0.096077375
-3.7986348	cold	-0.096077375
-4.6111875	climate	-0.096077375
-4.6111875	prevails	-0.096077375
-4.2452736	northern	-0.16600302
-2.8460228	regions	-0.2948547
-4.6111875	Consequently	-0.096077375
-4.6111875	intrinsically	-0.096077375
-4.6111875	frost-resistance	-0.096077375
-4.6111875	ratings	-0.096077375
-4.6111875	Lapland	-0.096077375
-4.0192647	remember	-0.16600302
-3.7986348	thus	-0.096077345
-4.6111875	frost	-0.096077375
-4.6111875	rating	-0.096077375
-4.6111875	lowered	-0.096077375
-4.6111875	-40?C	-0.096077375
-3.0677354	necessary	-0.24883941
-3.2684503	level	-0.37368655
-3.5441768	consideration	-0.12963438
-4.6111875	permission	-0.096077375
-4.6111875	begin	-0.096077375
-4.6111875	admiration	-0.096077375
-4.6111875	executed	-0.096077375
-4.6111875	quick	-0.096077375
-4.2452736	changeover	-0.096077375
-4.6111875	chairmanship	-0.096077375
-4.6111875	thought	-0.096077375
-4.6111875	superb	-0.096077375
-4.6111875	On	-0.096077375
-3.5441768	hand	-0.1949277
-4.6111875	confident	-0.096077375
-4.0192647	contribution	-0.16600302
-4.6111875	What	-0.096077375
-4.2452736	doing	-0.096077345
-4.6111875	essentially	-0.096077375
-4.6111875	nuisance	-0.096077375
-4.0192647	whom	-0.096077345
-4.2452736	express	-0.096077345
-4.0192647	thanks	-0.16600302
-4.6111875	advanced	-0.096077375
-4.6111875	inactivity	-0.096077375
-4.6111875	dilatory	-0.096077375
-4.2452736	drawing	-0.096077375
-4.6111875	adapting	-0.096077375
-4.2452736	resolve	-0.096077345
-4.2452736	finally	-0.096077375
-4.0192647	certainty	-0.12963438
-3.6530302	large	-0.12467881
-4.6111875	quantities	-0.096077375
-4.2452736	around	-0.096077375
-3.457212	both	-0.096077345
-4.6111875	extraordinarily	-0.096077375
-4.6111875	prerequisites	-0.096077375
-4.0192647	internal	-0.16600302
-2.955109	market	-0.2052628
-4.2452736	genuinely	-0.096077375
-4.2452736	running	-0.096077375
-3.6530302	country	-0.096077375
-4.0192647	conclude	-0.1474381
-4.6111875	commenting	-0.096077375
-4.6111875	third	-0.096077375
-4.6111875	namely	-0.096077375
-4.6111875	Ari	-0.096077375
-4.2452736	Vatanen	-0.096077375
-4.0192647	ways	-0.16600302
-4.6111875	differ	-0.096077375
-3.3847897	State	-0.27220953
-4.6111875	By	-0.096077375
-4.2452736	approving	-0.096077375
-3.6530302	makes	-0.096077345
-4.6111875	materials	-0.096077375
-4.6111875	packaging	-0.096077375
-4.2452736	affected	-0.096077345
-4.6111875	unambiguous	-0.096077375
-4.2452736	acknowledged	-0.096077375
-3.7986348	reason	-0.13666852
-4.0192647	produced	-0.096077345
-4.2452736	sound	-0.096077375
-4.6111875	United	-0.096077375
-4.2452736	Nations	-0.096077375
-3.7986348	Economic	-0.13666852
-4.2452736	none	-0.096077375
-4.6111875	expeditiously	-0.096077375
-2.6732275	state	-0.5659672
-3.7986348	play	-0.1474381
-3.6530302	efforts	-0.096077375
-4.2452736	organisations	-0.20569788
-4.6111875	hasten	-0.096077375
-4.0192647	simple	-0.096077375
-4.6111875	For	-0.096077375
-3.7986348	thing	-0.096077375
-4.2452736	arrangement	-0.096077375
-4.2452736	stop	-0.096077375
-4.6111875	borders	-0.096077375
-3.7986348	goes	-0.096077375
-4.2452736	beyond	-0.096077375
-4.6111875	Hence	-0.096077375
-3.5441768	certainly	-0.11815819
-4.2452736	introduce	-0.096077345
-4.6111875	far-reaching	-0.096077375
-2.8657575	regional	-0.26949736
-4.6111875	unable	-0.096077375
-4.2452736	prepared	-0.096077375
-4.6111875	inform	-0.096077375
-4.6111875	writing	-0.096077375
-3.6530302	matters	-0.096077375
-3.7986348	stand	-0.096077375
-4.0192647	stage	-0.13666852
-4.6111875	negotiations	-0.096077375
-4.2452736	supplements	-0.096077375
-4.0192647	held	-0.16600302
-4.6111875	October	-0.096077375
-4.6111875	required	-0.096077375
-4.6111875	carry	-0.096077375
-3.7986348	currently	-0.18144839
-3.6530302	allow	-0.12963438
-4.6111875	differentiating	-0.096077375
-4.2452736	elements	-0.096077375
-3.5441768	diversity	-0.23749468
-4.6111875	ours	-0.096077375
-4.0192647	moment	-0.096077375
-4.2452736	spoke	-0.096077375
-4.0192647	lower	-0.096077345
-4.6111875	temperatures	-0.096077375
-4.6111875	20	-0.096077375
-4.2452736	degrees	-0.20569788
-4.2452736	below	-0.096077375
-4.6111875	zero	-0.096077375
-4.2452736	40	-0.096077345
-4.6111875	climatic	-0.096077375
-4.2452736	sometimes	-0.096077375
-4.6111875	specifics	-0.096077375
-4.6111875	concrete	-0.096077375
-4.2452736	establishment	-0.20569788
-4.6111875	characterisations	-0.096077375
-4.6111875	speed	-0.096077375
-4.6111875	despite	-0.096077375
-4.0192647	deadline	-0.096077345
-4.6111875	bit	-0.096077375
-4.6111875	same	-0.096077345
-4.2452736	difficulties	-0.096077375
-4.6111875	accepts	-0.096077375
-4.0192647	contributions	-0.096077345
-3.7986348	parliamentary	-0.1474381
-4.2452736	contained	-0.20569788
-3.3847897	Structural	-0.47298867
-3.7986348	Funds	-0.1432643
-3.6530302	Cohesion	-0.16600302
-3.7986348	Fund	-0.11815819
-3.3847897	coordination	-0.14142208
-4.6111875	A5-0108/1999	-0.096077375
-3.5441768	communication	-0.096077345
-3.1767828	guidelines	-0.10919073
-4.6111875	2000-2006	-0.096077375
-4.6111875	344	-0.096077375
-4.6111875	C5-0122/1999	-0.096077375
-4.6111875	1999/2127	-0.096077375
-4.6111875	COS	-0.096077375
-4.6111875	pleasing	-0.096077375
-4.6111875	regarded	-0.096077375
-4.6111875	Kingdom	-0.096077345
-4.2452736	represent	-0.096077375
-3.6530302	Wales	-0.18144839
-3.5441768	Objective	-0.43040216
-4.0192647	status	-0.096077345
-4.2452736	looking	-0.13666852
-4.6111875	alleviate	-0.096077375
-4.0192647	undoubtedly	-0.096077345
-4.0192647	face	-0.096077345
-3.7986348	restructuring	-0.096077375
-4.6111875	wider	-0.096077375
-4.2452736	improvement	-0.096077375
-2.8460228	economic	-0.33086598
-4.0192647	base	-0.1474381
-4.6111875	Principality	-0.096077375
-4.6111875	highlight	-0.096077345
-3.2684503	issues	-0.1671585
-4.6111875	forefront	-0.096077375
-3.3227358	points	-0.096077375
-4.6111875	relation	-0.096077375
-4.2452736	additionality	-0.096077375
-4.6111875	dissatisfied	-0.096077375
-4.0192647	figures	-0.096077345
-4.6111875	hidden	-0.096077375
-4.2452736	UK	-0.096077375
-4.6111875	matched	-0.096077375
-4.0192647	funding	-0.096077345
-3.6530302	projects	-0.13666852
-4.2452736	challenge	-0.096077375
-4.2452736	Government	-0.096077345
-4.0192647	private	-0.15529752
-4.6111875	surely	-0.096077375
-4.2452736	providing	-0.096077375
-4.6111875	impetus	-0.096077375
-4.6111875	expenditure	-0.096077375
-3.7986348	planning	-0.1949277
-4.6111875	ensures	-0.096077375
-4.0192647	monies	-0.16600302
-4.2452736	transparent	-0.20569788
-4.6111875	Too	-0.096077375
-3.3847897	takes	-0.1474381
-4.6111875	friend	-0.096077375
-4.2452736	views	-0.096077375
-4.6111875	differently	-0.096077375
-4.6111875	speak	-0.096077375
-4.6111875	sign	-0.096077375
-3.7986348	own	-0.096077375
-3.5441768	conclusions	-0.16747418
-4.6111875	broaden	-0.096077375
-3.6530302	infrastructure	-0.096077375
-4.6111875	locating	-0.096077375
-4.6111875	universities	-0.096077375
-4.6111875	colleges	-0.096077375
-4.6111875	undeveloped	-0.096077375
-4.2452736	easier	-0.20569788
-4.6111875	educated	-0.096077375
-3.6530302	remain	-0.096077375
-4.6111875	home	-0.096077375
-4.6111875	districts	-0.096077375
-4.0192647	governments	-0.096077345
-4.0192647	decentralisation	-0.16600302
-4.0192647	higher	-0.096077375
-4.6111875	education	-0.096077375
-4.6111875	unquestionably	-0.096077375
-4.2452736	useful	-0.096077375
-2.8864315	policy	-0.26171866
-4.6111875	evening	-0.096077375
-3.0077815	development	-0.32763872
-4.6111875	Another	-0.096077375
-4.0192647	address	-0.096077375
-4.2452736	liked	-0.096077375
-4.6111875	pay	-0.096077375
-4.2452736	effects	-0.096077375
-4.2452736	electronic	-0.096077375
-4.6111875	commerce	-0.096077375
-4.2452736	growing	-0.096077375
-3.3847897	use	-0.37101895
-4.2452736	Internet	-0.096077345
-4.0192647	rich	-0.096077345
-3.3847897	jobs	-0.13281757
-3.3847897	industry	-0.16573822
-4.2452736	burden	-0.096077375
-3.7986348	poor	-0.13666852
-4.2452736	meaning	-0.096077375
-4.6111875	invest	-0.096077375
-3.6530302	sectors	-0.2142483
-3.6530302	production	-0.096077375
-4.6111875	industries	-0.096077375
-4.2452736	drafting	-0.096077375
-3.7986348	sufficient	-0.096077375
-4.6111875	Industry	-0.096077375
-4.6111875	External	-0.096077375
-4.6111875	Trade	-0.096077375
-4.6111875	Research	-0.096077375
-4.6111875	Energy	-0.096077375
-4.0192647	draw	-0.12467881
-4.6111875	representing	-0.096077375
-3.5441768	energy	-0.12467881
-4.2452736	renewable	-0.096077375
-3.457212	resources	-0.1474381
-4.2452736	Development	-0.096077375
-3.457212	funds	-0.17314021
-4.0192647	emphasised	-0.096077345
-4.6111875	renewables	-0.096077375
-4.6111875	scant	-0.096077375
-4.6111875	compensated	-0.096077375
-4.0192647	means	-0.096077345
-4.0192647	substantial	-0.096077345
-4.2452736	sums	-0.096077375
-4.2452736	colleague	-0.096077345
-4.6111875	Flautre	-0.096077375
-4.6111875	followed	-0.096077375
-4.6111875	Employment	-0.096077375
-3.7986348	Social	-0.1474381
-3.7986348	Affairs	-0.21771617
-4.2452736	unfortunately	-0.096077375
-4.6111875	ill	-0.096077375
-4.6111875	Amendments	-0.096077375
-4.6111875	Nos	-0.096077375
-3.7986348	2	-0.096077375
-4.2452736	agreed	-0.096077375
-3.3227358	economy	-0.2722323
-3.7986348	risk	-0.13666852
-4.6111875	financially	-0.096077375
-4.0192647	schemes	-0.16600302
-4.2452736	develop	-0.096077345
-3.0677354	employment	-0.2832521
-3.6530302	opportunities	-0.1949277
-4.0192647	strengthen	-0.1474381
-3.7986348	cohesion	-0.096077375
-4.6111875	past	-0.096077375
-4.6111875	viewed	-0.096077375
-4.0192647	potential	-0.096077375
-4.6111875	provider	-0.096077375
-4.6111875	fit	-0.096077375
-4.6111875	exclusion	-0.096077375
-3.3847897	serious	-0.11253186
-4.6111875	needing	-0.096077375
-4.2452736	constructive	-0.096077375
-4.6111875	considering	-0.096077375
-4.6111875	rejection	-0.096077375
-4.2452736	powerful	-0.096077375
-3.7986348	reasons	-0.096077375
-4.2452736	offer	-0.096077375
-4.6111875	seeking	-0.096077375
-4.6111875	drew	-0.096077375
-4.6111875	sorely	-0.096077375
-4.2452736	lacking	-0.096077375
-4.6111875	desperately	-0.096077375
-3.6530302	needed	-0.13666852
-4.6111875	omission	-0.096077375
-4.6111875	impression	-0.096077375
-3.457212	idea	-0.15941828
-4.0192647	assistance	-0.096077345
-4.0192647	review	-0.096077345
-4.2452736	half	-0.096077375
-3.7986348	plans	-0.2543109
-4.2452736	reassure	-0.20569788
-4.6111875	oversight	-0.096077375
-4.2452736	dealt	-0.20569788
-4.6111875	constructively	-0.096077375
-4.6111875	mandate	-0.096077375
-4.0192647	reasonable	-0.096077345
-4.2452736	starting	-0.20569788
-4.2452736	Agriculture	-0.096077375
-4.6111875	Rural	-0.096077375
-4.2452736	indicates	-0.096077375
-4.0192647	challenges	-0.096077375
-4.2452736	maintaining	-0.096077375
-3.7986348	population	-0.13666852
-3.6530302	rural	-0.2968974
-4.0192647	changes	-0.096077345
-4.0192647	taking	-0.13666852
-4.2452736	owing	-0.20569788
-4.6111875	agriculture	-0.096077375
-4.2452736	amongst	-0.20569788
-3.7986348	sources	-0.2543109
-4.6111875	income	-0.096077375
-3.457212	society	-0.17935255
-4.2452736	deficiencies	-0.096077345
-4.0192647	networks	-0.096077345
-4.6111875	infrastructures	-0.096077375
-3.6530302	generally	-0.096077375
-4.6111875	low	-0.096077375
-4.6111875	furthermore	-0.096077375
-4.6111875	seasonal	-0.096077375
-4.2452736	lacks	-0.096077375
-4.6111875	exacerbates	-0.096077375
-4.6111875	exodus	-0.096077375
-4.6111875	obstacle	-0.096077375
-4.2452736	creation	-0.096077375
-4.0192647	almost	-0.096077345
-4.6111875	fifths	-0.096077375
-4.6111875	territory	-0.096077375
-4.6111875	provides	-0.096077375
-4.6111875	5.5	-0.096077375
-4.2452736	quarters	-0.20569788
-4.6111875	farm	-0.096077375
-3.5441768	workers	-0.12963438
-4.6111875	part-time	-0.096077375
-3.5441768	require	-0.12963438
-4.2452736	incomes	-0.20569788
-3.6530302	general	-0.096077375
-3.6530302	criteria	-0.096077345
-4.6111875	land	-0.096077375
-4.6111875	demographic	-0.096077375
-4.6111875	equilibrium	-0.096077375
-4.0192647	bear	-0.3231197
-3.7986348	fundamental	-0.096077375
-4.6111875	16	-0.096077375
-3.3847897	conclusion	-0.16600299
-4.2452736	establishing	-0.096077375
-4.6111875	pillars	-0.096077375
-4.6111875	willingness	-0.096077375
-4.0192647	dialogue	-0.1474381
-4.0192647	groups	-0.096077375
-4.6111875	compromise	-0.096077375
-4.6111875	formulas	-0.096077375
-4.6111875	avalanche	-0.096077375
-4.6111875	perhaps	-0.096077375
-4.2452736	expected	-0.096077375
-3.6530302	discussing	-0.16600302
-3.5441768	spirit	-0.2968974
-4.6111875	useless	-0.096077375
-3.7986348	nothing	-0.13666852
-4.2452736	hot	-0.096077375
-4.6111875	truth	-0.096077375
-4.6111875	drafted	-0.096077375
-4.0192647	revision	-0.20569788
-4.2452736	directives	-0.096077345
-4.6111875	synergies	-0.096077375
-3.3847897	application	-0.26493722
-4.6111875	reflected	-0.096077375
-4.2452736	best	-0.096077345
-4.2452736	profitable	-0.096077375
-3.7986348	gradual	-0.096077375
-4.6111875	elimination	-0.096077375
-3.6530302	disparities	-0.21771617
-3.457212	central	-0.12099891
-3.7986348	purposes	-0.1474381
-4.6111875	rapid	-0.096077375
-3.7986348	efficient	-0.096077375
-4.0192647	boost	-0.096077375
-4.6111875	attaining	-0.096077375
-4.6111875	generate	-0.096077375
-3.5441768	real	-0.096077375
-4.2452736	entrepreneurs	-0.096077375
-3.6530302	really	-0.096077345
-3.457212	guarantee	-0.12099891
-4.0192647	businesspeople	-0.16600302
-4.6111875	participate	-0.096077375
-4.6111875	Small	-0.096077375
-4.2452736	medium-sized	-0.096077375
-3.2684503	businesses	-0.16099218
-4.0192647	above	-0.3231197
-4.0192647	distribution	-0.3231197
-4.6111875	marginalised	-0.096077375
-4.6111875	managing	-0.096077375
-4.6111875	receiving	-0.096077375
-4.6111875	missed	-0.096077375
-3.5441768	opportunity	-0.22932455
-4.6111875	attain	-0.096077375
-4.6111875	rapidly	-0.096077375
-4.6111875	Also	-0.096077375
-4.2452736	overcome	-0.096077375
-3.7986348	crucial	-0.096077375
-4.2452736	complete	-0.096077375
-4.6111875	technologies	-0.096077375
-4.2452736	communications	-0.096077375
-4.6111875	energies	-0.096077375
-4.6111875	participation	-0.096077375
-4.6111875	uniting	-0.096077375
-4.2452736	administrations	-0.096077375
-4.6111875	complementing	-0.096077375
-4.6111875	obstructing	-0.096077375
-4.6111875	excluding	-0.096077375
-3.7986348	lead	-0.3512209
-3.7986348	wealth	-0.13666852
-4.6111875	Let	-0.096077375
-4.6111875	party	-0.096077375
-4.6111875	leader	-0.096077375
-4.6111875	Hague	-0.096077375
-4.6111875	Secretary	-0.096077375
-4.6111875	book	-0.096077375
-4.2452736	led	-0.20569788
-4.6111875	stern	-0.096077375
-4.6111875	Wulf-Mathies	-0.096077375
-4.2452736	regulatory	-0.096077375
-4.0192647	operation	-0.3231197
-4.6111875	round	-0.096077375
-4.6111875	instructive	-0.096077375
-4.6111875	telling	-0.096077375
-3.5441768	implementation	-0.15529752
-4.6111875	left	-0.096077375
-4.2452736	interpretation	-0.096077375
-4.6111875	desk	-0.096077375
-4.6111875	officer	-0.096077375
-4.6111875	civil	-0.096077375
-4.6111875	coherence	-0.096077375
-4.6111875	directorate	-0.096077375
-3.7986348	while	-0.096077345
-4.6111875	respecting	-0.096077375
-3.7986348	broad	-0.096077345
-4.6111875	indicative	-0.096077375
-4.6111875	flexible	-0.096077375
-4.2452736	assist	-0.096077345
-4.6111875	managers	-0.096077375
-4.6111875	fund-users	-0.096077375
-4.2452736	fields	-0.096077375
-4.6111875	regeneration	-0.096077375
-4.6111875	inject	-0.096077375
-4.6111875	entrepreneurial	-0.096077375
-4.6111875	structurally	-0.096077375
-4.6111875	weak	-0.096077375
-4.6111875	eventually	-0.096077375
-4.2452736	back	-0.096077375
-4.2452736	onto	-0.20569788
-4.6111875	attracting	-0.096077375
-4.6111875	investor	-0.096077375
-3.7986348	confidence	-0.1474381
-3.7986348	success	-0.096077375
-3.6530302	going	-0.3512209
-4.2452736	judge	-0.096077375
-4.6111875	solid	-0.096077375
-4.2452736	enabling	-0.096077375
-4.6111875	guideline	-0.096077375
-3.7986348	open	-0.1474381
-4.2452736	contributing	-0.20569788
-4.0192647	growth	-0.13666852
-4.6111875	prosperity	-0.096077375
-4.2452736	heard	-0.096077375
-4.2452736	badly	-0.096077375
-4.0192647	behind	-0.096077345
-4.6111875	Hopefully	-0.096077375
-4.2452736	stands	-0.096077375
-3.5441768	help	-0.23734452
-4.6111875	mid-term	-0.096077375
-4.6111875	appraisal	-0.096077375
-3.6530302	practical	-0.096077345
-4.6111875	At	-0.096077375
-4.6111875	concentrate	-0.096077375
-4.6111875	assessing	-0.096077375
-4.6111875	steer	-0.096077375
-3.6530302	aim	-0.16600302
-4.2452736	reduce	-0.13666852
-4.2452736	inequality	-0.096077375
-4.6111875	Our	-0.096077375
-4.0192647	considers	-0.096077375
-3.7986348	remote	-0.21771617
-4.0192647	peripheral	-0.096077345
-4.0192647	wishes	-0.16600302
-4.6111875	interaction	-0.096077375
-4.6111875	towns	-0.096077375
-4.6111875	oppose	-0.096077375
-4.0192647	excessive	-0.096077345
-4.0192647	control	-0.096077345
-3.7986348	administration	-0.21771617
-4.6111875	exercises	-0.096077375
-4.0192647	calling	-0.16600302
-4.0192647	reduction	-0.2543109
-4.2452736	root	-0.20569788
-4.6111875	Projects	-0.096077375
-3.7986348	implemented	-0.096077375
-3.457212	effect	-0.096077375
-4.6111875	watered	-0.096077375
-4.6111875	slow	-0.096077375
-4.2452736	complicated	-0.096077375
-4.2452736	administrative	-0.096077375
-4.2452736	processes	-0.096077375
-4.6111875	While	-0.096077375
-3.7986348	interesting	-0.1474381
-4.0192647	members	-0.096077345
-4.6111875	supports	-0.096077375
-4.6111875	proof	-0.096077375
-3.2684503	role	-0.41677645
-4.6111875	consultative	-0.096077375
-4.0192647	subordinate	-0.096077345
-4.0192647	institution	-0.096077345
-4.6111875	member	-0.096077375
-4.6111875	Elisabeth	-0.096077375
-4.2452736	reach	-0.096077375
-4.2452736	forget	-0.096077375
-4.0192647	main	-0.096077345
-3.5441768	strategic	-0.12467881
-4.0192647	insufficient	-0.096077345
-4.2452736	condition	-0.096077375
-4.0192647	achieving	-0.096077345
-4.6111875	mistaken	-0.096077375
-4.6111875	using	-0.096077375
-4.6111875	gross	-0.096077375
-4.6111875	domestic	-0.096077375
-4.2452736	product	-0.096077375
-3.7986348	per	-0.1474381
-4.6111875	inhabitant	-0.096077375
-4.6111875	sole	-0.096077375
-4.6111875	indicator	-0.096077375
-4.6111875	Some	-0.096077375
-3.1767828	unemployment	-0.1752873
-4.2452736	study	-0.096077375
-3.7986348	indicators	-0.1474381
-3.7986348	enable	-0.096077375
-4.6111875	societies	-0.096077375
-4.6111875	evolving	-0.096077375
-4.2452736	25	-0.096077345
-4.2452736	prosperous	-0.20569788
-4.2452736	enjoy	-0.096077375
-4.2452736	act	-0.096077375
-4.6111875	decisively	-0.096077375
-4.6111875	strategically	-0.096077375
-4.0192647	assessment	-0.1474381
-3.3227358	agree	-0.3926136
-4.6111875	halfway	-0.096077375
-4.2452736	equally	-0.096077375
-4.6111875	influential	-0.096077375
-4.2452736	representatives	-0.096077375
-3.2202024	decisions	-0.12467881
-4.0192647	bureaucratic	-0.096077345
-4.6111875	They	-0.096077345
-4.0192647	dimension	-0.096077345
-4.6111875	officials	-0.096077375
-4.2452736	responsibilities	-0.096077375
-4.6111875	asking	-0.096077375
-4.2452736	propose	-0.096077375
-4.6111875	strategy	-0.096077375
-4.0192647	productivity	-0.096077345
-4.2452736	played	-0.20569788
-4.2452736	urban	-0.096077375
-4.6111875	mainly	-0.096077345
-4.6111875	upgrading	-0.096077375
-4.2452736	water	-0.096077375
-4.2452736	treatment	-0.096077345
-4.6111875	related	-0.096077375
-3.2684503	financial	-0.31000927
-4.6111875	spending	-0.096077375
-4.6111875	leaders	-0.096077375
-4.6111875	Berlin	-0.096077375
-4.6111875	Summit	-0.096077375
-4.0192647	supported	-0.16600302
-4.6111875	Key	-0.096077375
-4.6111875	1989	-0.096077375
-4.6111875	1993	-0.096077375
-4.2452736	1994	-0.096077345
-4.6111875	helped	-0.096077375
-3.457212	competitiveness	-0.15941828
-4.2452736	helping	-0.096077375
-4.6111875	well-off	-0.096077375
-4.6111875	third-level	-0.096077375
-4.2452736	financed	-0.096077375
-4.6111875	post-leaving	-0.096077375
-4.6111875	certificate	-0.096077375
-4.2452736	comprehensive	-0.096077345
-4.6111875	combat	-0.096077375
-4.6111875	youth	-0.096077375
-4.6111875	long-term	-0.096077375
-4.6111875	school	-0.096077375
-4.6111875	leavers	-0.096077375
-4.2452736	promote	-0.096077345
-4.6111875	adult	-0.096077375
-4.6111875	literacy	-0.096077375
-4.2452736	numerous	-0.096077375
-4.6111875	occasions	-0.096077375
-4.2452736	disagreed	-0.096077375
-3.7986348	approach	-0.096077375
-4.6111875	Whether	-0.096077375
-4.2452736	encourage	-0.096077375
-4.2452736	along	-0.096077345
-4.0192647	path	-0.096077345
-4.2452736	Nevertheless	-0.20569788
-4.6111875	commend	-0.096077375
-4.2452736	added	-0.096077375
-3.5441768	regulation	-0.11815819
-4.6111875	annex	-0.096077375
-4.6111875	McCarthy	-0.096077375
-4.2452736	rapporteurs	-0.096077375
-4.2452736	raising	-0.20569788
-4.6111875	reiterate	-0.096077375
-4.6111875	Thirdly	-0.096077375
-4.6111875	broadly	-0.096077375
-4.6111875	deviate	-0.096077375
-4.6111875	beneficial	-0.096077375
-4.0192647	emphasis	-0.2543109
-3.5441768	placed	-0.26187447
-3.457212	sustainable	-0.49734893
-4.6111875	Personally	-0.096077375
-3.7986348	totally	-0.096077375
-4.6111875	islander	-0.096077375
-4.6111875	dissatisfaction	-0.096077375
-4.6111875	recognition	-0.096077375
-4.2452736	island	-0.096077375
-4.6111875	implement	-0.096077375
-4.6111875	assume	-0.096077375
-4.0192647	code	-0.12963438
-4.2452736	conduct	-0.096077375
-4.2452736	signed	-0.096077375
-4.6111875	abreast	-0.096077375
-4.6111875	Over	-0.096077375
-4.2452736	coming	-0.096077345
-4.2452736	faced	-0.20569788
-4.2452736	globalisation	-0.096077375
-4.6111875	eastward	-0.096077375
-3.5441768	enlargement	-0.15529752
-4.0192647	detailed	-0.096077345
-4.6111875	guidance	-0.096077375
-4.6111875	plan	-0.096077375
-4.6111875	revitalise	-0.096077375
-3.7986348	each	-0.13666852
-4.6111875	individually	-0.096077375
-4.0192647	optimum	-0.096077345
-4.6111875	capacities	-0.096077375
-4.2452736	intentions	-0.096077375
-4.6111875	clearer	-0.096077375
-4.6111875	firm	-0.096077375
-3.5441768	monitoring	-0.12963438
-4.2452736	utilising	-0.20569788
-3.7986348	operators	-0.2543109
-4.2452736	saying	-0.20569788
-4.6111875	focus	-0.096077375
-4.6111875	territorial	-0.096077375
-4.6111875	pacts	-0.096077375
-4.6111875	methods	-0.096077375
-4.2452736	combating	-0.096077375
-4.0192647	women	-0.16600302
-4.6111875	young	-0.096077375
-4.6111875	pleasure	-0.096077375
-4.6111875	West	-0.096077375
-4.6111875	Midlands	-0.096077375
-4.0192647	hitherto	-0.096077345
-4.6111875	benefited	-0.096077375
-4.6111875	tonight	-0.096077375
-4.6111875	prime	-0.096077375
-4.2452736	careful	-0.096077375
-4.2452736	produce	-0.096077345
-4.6111875	grandiose-sounding	-0.096077375
-4.0192647	ideas	-0.096077345
-3.7986348	benefit	-0.096077375
-3.5441768	directly	-0.1949277
-4.6111875	well-intentioned	-0.096077375
-3.7986348	clarity	-0.1474381
-3.7986348	purpose	-0.096077375
-4.6111875	operability	-0.096077375
-4.6111875	proposing	-0.096077375
-4.2452736	additions	-0.096077345
-4.0192647	away	-0.16600302
-4.6111875	guide	-0.096077375
-4.6111875	thinking	-0.096077375
-4.6111875	Past	-0.096077375
-4.2452736	taxpayer	-0.16600302
-3.457212	demand	-0.12099891
-4.6111875	probity	-0.096077375
-4.6111875	disbursement	-0.096077375
-4.6111875	auditing	-0.096077375
-3.3227358	money	-0.13666852
-4.2452736	hence	-0.1474381
-4.6111875	grant-giving	-0.096077375
-4.6111875	Next	-0.096077375
-4.6111875	vast	-0.096077375
-4.0192647	whose	-0.096077345
-4.6111875	outcomes	-0.096077375
-4.0192647	necessarily	-0.16600302
-4.6111875	unclear	-0.096077375
-4.6111875	mid-way	-0.096077375
-4.6111875	terminating	-0.096077375
-4.0192647	successful	-0.096077375
-4.0192647	provision	-0.16600302
-4.6111875	enforceable	-0.096077375
-4.6111875	exit	-0.096077375
-4.6111875	strategies	-0.096077375
-4.6111875	requisite	-0.096077375
-4.2452736	insurance	-0.096077375
-4.2452736	ongoing	-0.096077375
-4.6111875	loaded	-0.096077375
-4.0192647	avoid	-0.096077375
-4.6111875	well-rehearsed	-0.096077375
-4.6111875	syndrome	-0.096077375
-4.6111875	throwing	-0.096077375
-4.0192647	bad	-0.096077345
-3.6530302	change	-0.17935255
-4.0192647	balance	-0.12963438
-4.2452736	method	-0.096077375
-4.6111875	disbursed	-0.096077375
-4.6111875	much-trumpeted	-0.096077375
-4.6111875	temptation	-0.096077375
-4.6111875	unnecessarily	-0.096077375
-4.6111875	located	-0.096077375
-4.6111875	diminished	-0.096077375
-3.6530302	show	-0.13666852
-3.0677354	reform	-0.21472813
-4.6111875	meticulous	-0.096077375
-4.6111875	substantive	-0.096077375
-4.6111875	piece	-0.096077375
-4.6111875	achieved	-0.096077375
-4.6111875	thought-out	-0.096077375
-4.6111875	sensible	-0.096077375
-3.5441768	policies	-0.26187447
-3.7986348	life	-0.096077375
-4.0192647	islands	-0.096077375
-4.6111875	geographical	-0.096077375
-4.6111875	location	-0.096077375
-4.6111875	hindrance	-0.096077375
-4.6111875	unless	-0.096077375
-4.6111875	intending	-0.096077375
-4.6111875	build	-0.096077345
-4.6111875	bridges	-0.096077375
-4.6111875	underwater	-0.096077375
-4.2452736	linking	-0.096077375
-4.2452736	mainland	-0.096077375
-4.6111875	closing	-0.096077375
-3.5441768	structural	-0.18507057
-4.2452736	adapt	-0.096077375
-4.0192647	changing	-0.1474381
-4.2452736	thereby	-0.096077375
-4.2452736	respond	-0.20569788
-4.6111875	Quite	-0.096077375
-4.2452736	ease	-0.20569788
-4.6111875	mass	-0.096077375
-4.6111875	aggravates	-0.096077375
-3.7986348	agricultural	-0.1474381
-4.6111875	irreparably	-0.096077375
-4.2452736	damaged	-0.20569788
-4.6111875	dramatic	-0.096077375
-4.6111875	consequences	-0.096077375
-3.6530302	levels	-0.21771617
-4.2452736	living	-0.096077345
-4.6111875	farmers	-0.096077375
-4.2452736	South	-0.096077375
-4.0192647	becoming	-0.096077345
-4.2452736	marked	-0.096077375
-4.2452736	data	-0.096077375
-3.7986348	sixth	-0.21771617
-4.0192647	periodic	-0.3231197
-4.6111875	decade	-0.096077375
-4.2452736	witnessed	-0.20569788
-4.6111875	proliferation	-0.096077375
-4.6111875	Little	-0.096077375
-4.2452736	facing	-0.096077375
-4.6111875	shortcomings	-0.096077375
-4.2452736	regards	-0.096077375
-4.6111875	infrastrucutres	-0.096077375
-4.2452736	structure	-0.096077375
-4.6111875	resulted	-0.096077375
-4.6111875	depopulation	-0.096077375
-4.6111875	blame	-0.096077375
-4.6111875	section	-0.096077375
-4.2452736	strongly	-0.096077375
-4.6111875	condemned	-0.096077375
-4.6111875	anti	-0.096077375
-4.6111875	grass-roots	-0.096077375
-4.6111875	Unfortunately	-0.096077375
-4.2452736	heading	-0.20569788
-3.7986348	direction	-0.2521948
-4.6111875	signs	-0.096077375
-3.5441768	things	-0.12963438
-4.0192647	words	-0.096077345
-4.6111875	Secondly	-0.096077375
-4.0192647	bring	-0.13666852
-4.6111875	outermost	-0.096077375
-4.6111875	ambition	-0.096077375
-4.6111875	Azores	-0.096077375
-4.6111875	Madeira	-0.096077375
-4.6111875	enlighten	-0.096077375
-4.6111875	awaited	-0.096077375
-4.2452736	willing	-0.20569788
-4.2452736	suggestions	-0.096077375
-4.6111875	paragraph	-0.096077375
-4.6111875	10	-0.096077375
-3.6530302	relating	-0.5449684
-4.6111875	deliberations	-0.096077375
-4.2452736	criterion	-0.096077375
-4.6111875	unemployed	-0.096077375
-4.2452736	equality	-0.096077375
-4.6111875	men	-0.096077375
-3.7986348	considerable	-0.096077375
-4.6111875	evidence	-0.096077375
-4.2452736	later	-0.096077375
-4.2452736	Berend	-0.096077345
-4.6111875	splendid	-0.096077375
-4.6111875	backward	-0.096077375
-4.6111875	bridge	-0.096077375
-4.6111875	gulf	-0.096077375
-4.6111875	separates	-0.096077375
-4.6111875	highly-developed	-0.096077375
-3.7986348	GDP	-0.13666852
-4.2452736	experiencing	-0.096077375
-3.5441768	differences	-0.16600302
-4.6111875	please	-0.096077375
-4.6111875	read	-0.096077375
-4.6111875	treat	-0.096077375
-4.6111875	greatest	-0.096077375
-4.6111875	allocation	-0.096077375
-4.6111875	reserves	-0.096077375
-3.3847897	needs	-0.42183614
-4.6111875	fundamentally	-0.096077375
-4.6111875	head	-0.096077375
-4.2452736	effectiveness	-0.20569788
-4.6111875	seven-year	-0.096077375
-4.6111875	struck	-0.096077375
-2.7434034	aid	-0.3023905
-4.6111875	Greek	-0.096077375
-4.6111875	comprise	-0.096077375
-4.2452736	stipulated	-0.096077375
-3.3847897	Article	-0.18498184
-4.0192647	Treaty	-0.12963438
-4.6111875	strengthened	-0.096077375
-4.6111875	disregards	-0.096077375
-4.2452736	standard	-0.20569788
-4.6111875	neither	-0.096077375
-4.6111875	reliable	-0.096077375
-4.6111875	viable	-0.096077375
-4.6111875	A5-0107/1999	-0.096077375
-4.2452736	SEC	-0.096077375
-4.6111875	99	-0.096077375
-4.6111875	0066	-0.096077375
-4.6111875	C5-0120/99	-0.096077375
-4.6111875	1999/2123	-0.096077375
-4.6111875	constitutes	-0.096077375
-4.6111875	milestone	-0.096077375
-3.457212	analysis	-0.2487478
-4.6111875	highlights	-0.096077375
-4.0192647	progress	-0.096077345
-4.6111875	fifth	-0.096077375
-4.2452736	convergence	-0.096077375
-4.2452736	average	-0.096077375
-4.6111875	offers	-0.096077375
-4.6111875	over-simplified	-0.096077375
-4.6111875	speeches	-0.096077375
-4.6111875	relativises	-0.096077375
-4.2452736	observation	-0.096077375
-4.6111875	refers	-0.096077375
-4.0192647	special	-0.096077375
-3.457212	interest	-0.12467881
-4.6111875	French	-0.096077345
-4.6111875	overseas	-0.096077375
-4.6111875	departments	-0.096077375
-4.6111875	devote	-0.096077375
-4.6111875	chapter	-0.096077375
-4.2452736	impact	-0.096077375
-3.2202024	measures	-0.11124373
-4.2452736	shortly	-0.096077375
-4.6111875	299	-0.096077375
-4.6111875	Amsterdam	-0.096077375
-4.6111875	presents	-0.096077375
-4.0192647	arguments	-0.096077345
-4.2452736	viewpoint	-0.096077375
-4.6111875	balanced	-0.096077375
-4.2452736	outlines	-0.096077375
-4.2452736	relations	-0.096077375
-4.6111875	reluctant	-0.096077375
-4.6111875	explicit	-0.096077375
-4.0192647	fashion	-0.096077345
-4.6111875	demonstrates	-0.096077375
-4.2452736	polycentric	-0.096077375
-4.6111875	scope	-0.096077375
-4.6111875	initiated	-0.096077375
-4.6111875	congratulates	-0.096077375
-4.6111875	author	-0.096077375
-4.6111875	ensured	-0.096077375
-4.0192647	valuable	-0.096077375
-4.6111875	summarise	-0.096077375
-4.2452736	negative	-0.096077375
-4.6111875	advances	-0.096077375
-4.0192647	throughout	-0.16600302
-4.2452736	decisive	-0.096077375
-4.0192647	factor	-0.16600302
-4.6111875	reducing	-0.096077375
-4.6111875	inequalities	-0.096077375
-4.2452736	harmonising	-0.16600302
-4.0192647	link	-0.16600302
-4.2452736	financing	-0.096077375
-4.6111875	closely	-0.096077375
-4.6111875	commandment	-0.096077375
-4.6111875	Thus	-0.096077375
-4.6111875	approve	-0.096077375
-3.6530302	note	-0.13666852
-4.6111875	programming	-0.096077375
-3.3847897	due	-0.3624334
-4.2452736	in-depth	-0.096077345
-4.6111875	producing	-0.096077375
-4.2452736	desired	-0.096077345
-4.6111875	Is	-0.096077375
-4.2452736	notice	-0.096077375
-4.6111875	interregional	-0.096077375
-4.6111875	distances	-0.096077375
-4.6111875	climates	-0.096077375
-4.6111875	sparse	-0.096077375
-4.6111875	populations	-0.096077375
-4.6111875	austere	-0.096077375
-4.6111875	How	-0.096077345
-3.7986348	global	-0.096077375
-4.2452736	developed	-0.096077375
-4.6111875	discover	-0.096077375
-3.5441768	responsibility	-0.12963438
-4.6111875	breach	-0.096077375
-4.2452736	via	-0.20569788
-4.6111875	chipped	-0.096077375
-4.2452736	results	-0.096077375
-4.2452736	targeted	-0.096077375
-4.6111875	uncontrolled	-0.096077375
-4.6111875	migration	-0.096077375
-3.7986348	connection	-0.1474381
-4.6111875	weight	-0.096077375
-3.6530302	SMEs	-0.096077375
-4.2452736	employers	-0.096077375
-4.2452736	forces	-0.096077375
-3.7986348	essential	-0.13666852
-4.6111875	developing	-0.096077375
-4.6111875	slowly	-0.096077375
-4.2452736	technology	-0.096077375
-4.2452736	know-how	-0.20569788
-4.6111875	interpret	-0.096077375
-3.7986348	significant	-0.096077375
-4.6111875	inhabitants	-0.096077375
-4.2452736	genuine	-0.096077345
-4.2452736	poverty	-0.096077375
-4.2452736	demonstrated	-0.20569788
-4.6111875	worrying	-0.096077375
-4.6111875	23.7	-0.096077375
-4.2452736	worst	-0.16600302
-4.6111875	happen	-0.096077375
-4.2452736	whilst	-0.096077345
-4.6111875	lowest	-0.096077345
-4.2452736	corresponding	-0.096077375
-4.6111875	richer	-0.096077375
-4.2452736	4	-0.096077375
-4.6111875	compliments	-0.096077375
-4.2452736	goal	-0.096077375
-4.6111875	stimulating	-0.096077375
-4.6111875	investments	-0.096077375
-4.6111875	endeavouring	-0.096077375
-4.6111875	capita	-0.096077375
-4.6111875	From	-0.096077375
-4.6111875	hesitant	-0.096077375
-4.0192647	incentives	-0.16600302
-4.6111875	drive	-0.096077375
-4.6111875	satisfying	-0.096077375
-4.6111875	couple	-0.096077375
-4.6111875	indicated	-0.096077375
-4.6111875	minimal	-0.096077375
-4.6111875	reservation	-0.096077375
-4.0192647	called	-0.16600302
-4.0192647	pronounced	-0.096077345
-4.6111875	raises	-0.096077375
-4.2452736	allowing	-0.096077375
-4.6111875	tailor-made	-0.096077375
-4.6111875	tying	-0.096077375
-4.2452736	return	-0.096077375
-4.6111875	Surely	-0.096077375
-4.6111875	ultimate	-0.096077375
-4.6111875	delegating	-0.096077375
-4.6111875	Following	-0.096077375
-4.0192647	probably	-0.096077375
-4.6111875	meaningful	-0.096077375
-4.6111875	anyway	-0.096077375
-4.6111875	shifting	-0.096077375
-4.2452736	Central	-0.20569788
-4.2452736	shows	-0.20569788
-4.0192647	following	-0.096077375
-4.6111875	scrutiny	-0.096077375
-4.6111875	escape	-0.096077375
-4.2452736	fulfil	-0.096077375
-4.2452736	decreased	-0.096077375
-4.0192647	amount	-0.16600302
-4.2452736	themselves	-0.096077375
-4.6111875	Equally	-0.096077375
-4.6111875	barely	-0.096077375
-4.6111875	fell	-0.096077375
-4.6111875	wonder	-0.096077375
-4.0192647	employed	-0.096077345
-4.6111875	efficiently	-0.096077375
-4.6111875	accumulation	-0.096077375
-4.6111875	Since	-0.096077345
-4.6111875	politicians	-0.096077375
-4.6111875	pose	-0.096077375
-4.0192647	critical	-0.096077345
-4.2452736	improvements	-0.096077375
-4.6111875	Genuine	-0.096077375
-4.0192647	reforms	-0.096077345
-4.6111875	competition-friendly	-0.096077375
-4.6111875	taxation	-0.096077375
-4.6111875	cornerstones	-0.096077375
-4.6111875	pursuing	-0.096077375
-4.6111875	cost-intensive	-0.096077375
-4.0192647	drawn	-0.3231197
-4.6111875	analysed	-0.096077375
-4.6111875	manage	-0.096077375
-3.7986348	create	-0.2142483
-4.2452736	rate	-0.20569788
-4.6111875	everyday	-0.096077375
-4.2452736	credibility	-0.096077375
-4.6111875	conceded	-0.096077375
-4.6111875	aided	-0.096077375
-4.6111875	magnificently	-0.096077375
-4.6111875	deserves	-0.096077375
-4.6111875	gesture	-0.096077375
-4.2452736	People	-0.096077345
-4.6111875	react	-0.096077375
-4.2452736	voting	-0.096077375
-4.2452736	feet	-0.096077375
-4.6111875	earn	-0.096077375
-4.6111875	crust	-0.096077375
-4.6111875	schools	-0.096077375
-4.6111875	hospitals	-0.096077375
-4.6111875	costly	-0.096077375
-4.6111875	Most	-0.096077345
-4.6111875	born	-0.096077375
-4.0192647	raised	-0.16600302
-4.6111875	chance	-0.096077375
-4.6111875	moral	-0.096077375
-4.0192647	obligation	-0.16600302
-4.2452736	lies	-0.096077375
-4.6111875	encouraging	-0.096077375
-4.6111875	entrepreneurship	-0.096077375
-3.7986348	fair	-0.1474381
-4.6111875	someone	-0.096077375
-4.2452736	background	-0.096077375
-4.6111875	children	-0.096077375
-4.0192647	learn	-0.096077345
-4.6111875	lesson	-0.096077375
-4.6111875	America	-0.096077375
-3.6530302	hard	-0.13666852
-4.6111875	indication	-0.096077375
-4.2452736	ability	-0.096077375
-4.6111875	envy	-0.096077375
-4.6111875	Adoption	-0.096077375
-3.5441768	yesterday	-0.12963438
-4.6111875	distributed	-0.096077375
-4.6111875	Are	-0.096077375
-4.6111875	Socialist	-0.096077375
-4.6111875	reinstatement	-0.096077375
-4.2452736	five-year	-0.096077375
-4.2452736	wished	-0.20569788
-4.6111875	accommodated	-0.096077375
-4.6111875	respectfully	-0.096077375
-4.6111875	remarked	-0.096077375
-4.6111875	works	-0.096077375
-4.6111875	synergy	-0.096077375
-4.6111875	humility	-0.096077375
-4.6111875	recognise	-0.096077375
-4.6111875	wanted	-0.096077375
-4.2452736	accompanied	-0.096077375
-4.6111875	elucidation	-0.096077375
-4.0192647	mechanisms	-0.16600302
-4.2452736	advance	-0.096077375
-4.6111875	convey	-0.096077375
-4.6111875	lessons	-0.096077375
-4.6111875	founded	-0.096077375
-4.6111875	misapprehension	-0.096077375
-4.6111875	faith	-0.096077375
-4.6111875	dramatised	-0.096077375
-4.6111875	11	-0.096077375
-4.6111875	Bourlanges	-0.096077375
-4.6111875	Budgets	-0.096077375
-4.6111875	night	-0.096077375
-3.3847897	without	-0.15848155
-4.6111875	Wynn	-0.096077375
-3.7986348	sense	-0.1474381
-4.6111875	hereby	-0.096077375
-4.6111875	presume	-0.096077375
-4.2452736	talking	-0.20569788
-4.2452736	drains	-0.096077375
-4.6111875	smell	-0.096077375
-4.6111875	Tower	-0.096077375
-4.6111875	looked	-0.096077375
-4.6111875	drag	-0.096077375
-4.6111875	endlessly	-0.096077375
-4.6111875	Ahern	-0.096077375
-4.6111875	ventilators	-0.096077375
-4.2452736	Reform	-0.096077375
-4.0192647	joint	-0.3231197
-4.6111875	A5-0069/1999	-0.096077375
-3.7986348	von	-0.2543109
-4.6111875	Wogau	-0.096077375
-4.6111875	Monetary	-0.096077375
-3.457212	White	-0.6910965
-4.6111875	Paper	-0.096077375
-3.457212	modernisation	-0.15941828
-3.5441768	Articles	-0.28247684
-4.6111875	85	-0.096077375
-4.6111875	86	-0.096077375
-4.2452736	EC	-0.096077375
-4.6111875	101	-0.096077375
-4.6111875	C5-0105/1999	-0.096077375
-4.6111875	1999/2108	-0.096077375
-4.6111875	A5-0078/1999	-0.096077375
-4.2452736	Rapkay	-0.096077345
-4.2452736	XXVIIIth	-0.096077345
-3.7986348	Report	-0.2543109
-4.0192647	Competition	-0.096077375
-4.6111875	SEK	-0.096077375
-4.6111875	743	-0.096077375
-4.6111875	C5-0121/1999	-0.096077375
-4.6111875	1999/2124	-0.096077375
-4.6111875	A5-0087/1999	-0.096077375
-4.2452736	Jonckheer	-0.096077375
-4.6111875	seventh	-0.096077375
-4.2452736	survey	-0.096077375
-4.0192647	manufacturing	-0.13666852
-4.6111875	148	-0.096077375
-4.6111875	C5-0107/1999	-0.096077375
-4.6111875	1999/2110	-0.096077375
-4.6111875	1995-1997	-0.096077375
-4.6111875	engaged	-0.096077375
-4.2452736	controversial	-0.096077375
-3.3847897	monopolies	-0.17530444
-3.2202024	law	-0.21688561
-4.0192647	personally	-0.16600302
-4.2452736	justified	-0.096077375
-4.6111875	describe	-0.096077375
-4.6111875	content	-0.096077375
-3.7986348	81	-0.3512209
-4.6111875	82	-0.096077345
-4.2452736	expression	-0.096077375
-4.6111875	retrograde	-0.096077375
-4.6111875	latter	-0.096077375
-3.7986348	share	-0.096077375
-4.6111875	viability	-0.096077375
-4.6111875	documents	-0.096077375
-4.6111875	learns	-0.096077375
-3.5441768	proposals	-0.12963438
-4.0192647	introduced	-0.096077345
-4.2452736	pursued	-0.16600302
-4.6111875	completed	-0.096077375
-4.6111875	taught	-0.096077375
-4.2452736	posed	-0.20569788
-4.6111875	deepening	-0.096077375
-4.0192647	technological	-0.096077345
-3.457212	individual	-0.14142208
-4.2452736	possibility	-0.20569788
-4.2452736	dependent	-0.20569788
-4.0192647	acceptance	-0.16600302
-3.457212	enterprises	-0.096077375
-4.6111875	Only	-0.096077375
-4.2452736	foundation	-0.096077375
-3.7986348	upon	-0.12963438
-4.6111875	competences	-0.096077375
-4.6111875	Here	-0.096077375
-4.6111875	chosen	-0.096077375
-4.6111875	strengthening	-0.096077375
-4.6111875	intensifying	-0.096077375
-4.2452736	consultation	-0.096077375
-4.2452736	scandalous	-0.096077375
-4.2452736	urge	-0.20569788
-4.2452736	Intergovernmental	-0.20569788
-4.0192647	codecision	-0.096077345
-4.2452736	expect	-0.20569788
-4.6111875	exploit	-0.096077375
-4.2452736	involve	-0.096077375
-4.6111875	doubtful	-0.096077375
-4.6111875	quo	-0.096077375
-4.6111875	pro-active	-0.096077375
-4.2452736	supporting	-0.096077375
-3.7986348	supply	-0.1474381
-3.7986348	efficiency	-0.1474381
-4.6111875	accord	-0.096077375
-4.6111875	Framework	-0.096077375
-4.6111875	indispensable	-0.096077375
-4.2452736	preventing	-0.096077375
-4.0192647	abuses	-0.096077345
-4.6111875	serves	-0.096077375
-4.6111875	prevent	-0.096077375
-4.0192647	framework	-0.096077375
-4.2452736	alone	-0.096077375
-4.6111875	socially	-0.096077375
-4.2452736	legitimate	-0.096077375
-4.6111875	goals	-0.096077375
-4.6111875	isolation	-0.096077375
-4.6111875	yes	-0.096077375
-4.0192647	restrictions	-0.096077375
-4.2452736	permissible	-0.096077375
-4.0192647	unacceptable	-0.096077375
-4.6111875	distortion	-0.096077375
-3.457212	mergers	-0.13666852
-4.6111875	comprehensible	-0.096077375
-4.6111875	pillory	-0.096077375
-4.6111875	distinctions	-0.096077375
-4.6111875	assess	-0.096077375
-4.0192647	extent	-0.16600302
-4.6111875	above-mentioned	-0.096077375
-4.2452736	Annual	-0.20569788
-4.0192647	authorised	-0.096077345
-4.2452736	87	-0.096077375
-4.2452736	88	-0.096077375
-4.6111875	89	-0.096077375
-4.6111875	descriptive	-0.096077375
-4.6111875	detailing	-0.096077375
-3.7986348	according	-0.44805843
-4.6111875	typologies	-0.096077375
-4.6111875	explanatory	-0.096077375
-4.2452736	statement	-0.096077375
-4.6111875	quantitative	-0.096077375
-3.7986348	EUR	-0.096077375
-4.2452736	95	-0.096077375
-4.2452736	billion	-0.096077375
-4.6111875	13	-0.096077375
-4.6111875	1993-1995	-0.096077375
-4.6111875	Federal	-0.096077375
-4.6111875	Republic	-0.096077375
-4.6111875	plainly	-0.096077375
-4.6111875	roughly	-0.096077375
-4.6111875	stable	-0.096077375
-4.6111875	approximately	-0.096077375
-4.6111875	1.2	-0.096077375
-4.6111875	equivalent	-0.096077375
-4.6111875	coincidentally	-0.096077375
-3.7986348	budget	-0.1474381
-4.6111875	measured	-0.096077375
-4.6111875	percentage	-0.096077375
-4.6111875	wage	-0.096077375
-4.6111875	earner	-0.096077375
-4.6111875	add	-0.096077375
-4.6111875	assimilated	-0.096077375
-4.6111875	top	-0.096077375
-4.6111875	list	-0.096077375
-4.6111875	aggregated	-0.096077375
-4.0192647	evaluation	-0.3231197
-4.6111875	simultaneously	-0.096077375
-3.6530302	interests	-0.14269614
-4.6111875	extensive	-0.096077375
-4.6111875	compliance	-0.096077375
-4.6111875	pursuant	-0.096077375
-4.6111875	actual	-0.096077375
-4.6111875	collate	-0.096077375
-4.6111875	analyse	-0.096077375
-4.6111875	championed	-0.096077375
-4.6111875	longstanding	-0.096077375
-4.0192647	register	-0.18144839
-4.6111875	accessible	-0.096077375
-4.6111875	Having	-0.096077375
-4.2452736	recorded	-0.20569788
-4.2452736	commission	-0.096077375
-4.0192647	studies	-0.096077345
-4.6111875	And	-0.096077345
-4.2452736	insofar	-0.20569788
-4.2452736	exist	-0.096077375
-4.6111875	publish	-0.096077375
-4.6111875	openly	-0.096077375
-4.6111875	competitivity	-0.096077375
-4.2452736	stressing	-0.096077375
-4.6111875	primarily	-0.096077375
-4.6111875	honour	-0.096077375
-4.6111875	avoided	-0.096077375
-4.6111875	simplistic	-0.096077375
-4.6111875	priori	-0.096077375
-4.2452736	absolute	-0.096077375
-3.6530302	high	-0.096077375
-4.6111875	sought	-0.096077375
-4.6111875	acknowledgement	-0.096077375
-4.6111875	initial	-0.096077375
-4.6111875	highlighting	-0.096077375
-4.6111875	reimbursement	-0.096077375
-4.2452736	found	-0.096077375
-4.0192647	illegal	-0.16600302
-4.6111875	league	-0.096077375
-4.6111875	Seven	-0.096077375
-4.6111875	retabled	-0.096077375
-4.6111875	appropriateness	-0.096077375
-4.2452736	inadequacies	-0.096077375
-4.2452736	investment	-0.096077375
-4.6111875	failures	-0.096077375
-4.2452736	capacity	-0.096077375
-4.6111875	involves	-0.096077375
-4.6111875	pre-accession	-0.096077375
-4.2452736	complex	-0.096077375
-4.6111875	informing	-0.096077375
-3.6530302	economies	-0.096077375
-4.6111875	accession	-0.096077375
-4.6111875	probability	-0.096077375
-4.6111875	argues	-0.096077375
-3.7986348	basic	-0.096077375
-3.3227358	steel	-0.20027938
-4.2452736	assessed	-0.096077375
-4.0192647	total	-0.096077345
-4.6111875	27	-0.096077375
-4.2452736	ECSC	-0.20569788
-4.6111875	expire	-0.096077375
-4.2452736	forms	-0.20569788
-4.6111875	debated	-0.096077375
-4.0192647	ban	-0.1474381
-4.6111875	applies	-0.096077375
-4.6111875	iron	-0.096077375
-4.6111875	Under	-0.096077375
-4.6111875	supervise	-0.096077375
-4.6111875	largest	-0.096077375
-4.6111875	totalling	-0.096077375
-4.6111875	540	-0.096077375
-4.2452736	million	-0.096077375
-4.6111875	PREUSSAG	-0.096077375
-4.2452736	warning	-0.096077375
-4.6111875	pertaining	-0.096077375
-4.2452736	1996	-0.096077375
-4.6111875	stipulate	-0.096077375
-4.6111875	awarded	-0.096077375
-4.6111875	precisely-defined	-0.096077375
-3.7986348	environmental	-0.1474381
-3.5441768	protection	-0.15848155
-4.0192647	security	-0.096077345
-4.2452736	closure	-0.096077375
-3.7986348	steelworks	-0.096077375
-4.6111875	non-competitive	-0.096077375
-4.6111875	cease	-0.096077375
-4.6111875	trading	-0.096077375
-4.6111875	altogether	-0.096077375
-4.6111875	Greece	-0.096077375
-4.6111875	obviously	-0.096077375
-4.2452736	brought	-0.096077375
-3.7986348	fully	-0.096077375
-4.6111875	waste	-0.096077375
-4.6111875	getting	-0.096077375
-4.2452736	succeed	-0.096077375
-4.6111875	expired	-0.096077375
-4.6111875	watering-down	-0.096077375
-4.6111875	underlying	-0.096077375
-4.6111875	No	-0.096077345
-4.0192647	wants	-0.16600302
-4.6111875	unimpeded	-0.096077375
-4.2452736	subsidy	-0.096077375
-4.2452736	disadvantage	-0.096077375
-4.6111875	regardless	-0.096077375
-4.6111875	undergone	-0.096077375
-4.6111875	consolidation	-0.096077375
-4.6111875	claims	-0.096077375
-4.2452736	unequal	-0.20569788
-4.0192647	follow-up	-0.16600302
-4.6111875	dragged	-0.096077375
-4.2452736	expires	-0.20569788
-4.6111875	inconvenience	-0.096077375
-4.0192647	supervision	-0.16600302
-4.6111875	regulated	-0.096077375
-4.0192647	94	-0.16600302
-4.6111875	enforce	-0.096077375
-4.0192647	strict	-0.096077375
-4.6111875	covered	-0.096077375
-4.6111875	compromising	-0.096077375
-4.6111875	disturbing	-0.096077375
-3.7986348	markets	-0.16600302
-4.6111875	criticise	-0.096077375
-3.7986348	practice	-0.096077375
-4.6111875	multiple	-0.096077375
-4.6111875	packages	-0.096077375
-4.2452736	categories	-0.096077375
-3.7986348	Court	-0.1949277
-4.6111875	Justice	-0.096077345
-4.0192647	compiled	-0.096077345
-4.6111875	active	-0.096077375
-4.6111875	elaboration	-0.096077375
-3.6530302	exemptions	-0.13666852
-4.6111875	overall	-0.096077375
-4.6111875	Once	-0.096077375
-4.0192647	created	-0.096077345
-4.6111875	maiden	-0.096077375
-4.6111875	thanking	-0.096077375
-4.6111875	Langen	-0.096077345
-4.2452736	containing	-0.096077375
-4.6111875	dropping	-0.096077375
-4.6111875	notify	-0.096077375
-4.2452736	retrodisplacement	-0.20569788
-4.6111875	Dropping	-0.096077375
-4.0192647	red	-0.16600302
-4.6111875	tape	-0.096077375
-2.980647	system	-0.30714893
-4.6111875	onus	-0.096077375
-4.0192647	world	-0.096077345
-4.0192647	culture	-0.13666852
-4.0192647	doubt	-0.096077345
-3.6530302	authorities	-0.21568987
-4.0192647	decided	-0.3231197
-4.6111875	centrally	-0.096077375
-4.6111875	adaptation	-0.096077375
-4.6111875	phase	-0.096077375
-4.2452736	instrument	-0.096077375
-4.6111875	anticipated	-0.096077375
-4.2452736	recourse	-0.20569788
-4.6111875	ascertain	-0.096077375
-4.6111875	disciplined	-0.096077375
-4.6111875	holds	-0.096077375
-4.6111875	dear	-0.096077375
-4.2452736	heart	-0.096077375
-4.6111875	minimis	-0.096077375
-3.7986348	power	-0.12963438
-4.6111875	compete	-0.096077375
-4.2452736	talk	-0.096077375
-4.6111875	customer	-0.096077375
-4.6111875	timely	-0.096077375
-4.6111875	evolved	-0.096077375
-4.2452736	structures	-0.096077375
-4.6111875	stifle	-0.096077375
-4.6111875	Apart	-0.096077375
-4.2452736	customers	-0.20569788
-4.6111875	destructive	-0.096077375
-4.6111875	Robert	-0.096077375
-4.6111875	Goebbels	-0.096077375
-4.6111875	attend	-0.096077375
-4.6111875	Within	-0.096077375
-4.6111875	bitter	-0.096077375
-4.6111875	controversy	-0.096077375
-4.6111875	slim	-0.096077375
-4.6111875	right-wing	-0.096077375
-3.7986348	majority	-0.12963438
-4.6111875	succeeded	-0.096077375
-4.6111875	removing	-0.096077375
-4.6111875	ultraliberal	-0.096077375
-4.6111875	supposedly	-0.096077375
-4.0192647	perfect	-0.096077345
-4.2452736	difference	-0.096077375
-4.6111875	relationships	-0.096077375
-4.6111875	adequately	-0.096077375
-4.2452736	eliminating	-0.096077375
-4.6111875	dawn	-0.096077375
-4.2452736	forum	-0.096077375
-4.6111875	interchange	-0.096077375
-4.6111875	favours	-0.096077375
-4.2452736	immediate	-0.096077375
-4.2452736	profits	-0.096077375
-4.6111875	detriment	-0.096077375
-4.6111875	weakest	-0.096077375
-4.2452736	parties	-0.096077375
-4.0192647	consumers	-0.16600302
-4.0192647	function	-0.096077375
-4.6111875	offset	-0.096077375
-4.0192647	define	-0.1474381
-4.2452736	save	-0.096077345
-4.6111875	aligned	-0.096077375
-4.6111875	track	-0.096077375
-4.6111875	hinders	-0.096077375
-4.6111875	mistake	-0.096077375
-4.6111875	eliminate	-0.096077375
-4.6111875	American	-0.096077345
-4.6111875	army	-0.096077375
-4.6111875	World	-0.096077375
-4.6111875	Wide	-0.096077375
-4.6111875	Web	-0.096077375
-4.6111875	enabled	-0.096077375
-4.6111875	meteoric	-0.096077375
-4.6111875	CERN	-0.096077375
-4.6111875	Geneva	-0.096077375
-4.0192647	German	-0.16600302
-4.0192647	Holzmann	-0.096077345
-4.6111875	criticised	-0.096077375
-4.6111875	unjustifiable	-0.096077375
-4.6111875	constraint	-0.096077375
-4.2452736	Duisenberg	-0.096077345
-4.6111875	attempted	-0.096077375
-4.6111875	attribute	-0.096077375
-4.2452736	weakness	-0.096077375
-4.6111875	relative	-0.096077375
-4.6111875	euro	-0.096077345
-4.6111875	dollar	-0.096077375
-4.6111875	interventionism	-0.096077375
-4.6111875	criticising	-0.096077375
-4.6111875	monetary	-0.096077375
-4.6111875	hedge	-0.096077375
-4.6111875	fund	-0.096077375
-4.6111875	LTCM	-0.096077375
-4.6111875	Wishing	-0.096077375
-4.6111875	60	-0.096077375
-4.2452736	000	-0.20569788
-4.6111875	apparently	-0.096077375
-4.6111875	sin	-0.096077375
-4.6111875	saving	-0.096077375
-4.6111875	advocates	-0.096077375
-3.7986348	free	-0.096077375
-4.2452736	Public	-0.096077375
-4.6111875	repair	-0.096077375
-4.6111875	caused	-0.096077375
-4.6111875	speculation	-0.096077375
-4.6111875	Mexico	-0.096077375
-4.6111875	Asia	-0.096077375
-4.6111875	Brazil	-0.096077375
-4.6111875	Human	-0.096077375
-4.6111875	labour	-0.096077375
-4.2452736	considered	-0.096077345
-4.6111875	equation	-0.096077375
-4.2452736	reject	-0.096077375
-4.6111875	liberals	-0.096077375
-4.6111875	naive	-0.096077375
-4.6111875	optimism	-0.096077375
-3.7986348	true	-0.096077375
-4.2452736	regulate	-0.096077375
-4.2452736	examples	-0.096077375
-4.2452736	receives	-0.096077375
-4.6111875	sawmills	-0.096077375
-4.0192647	former	-0.16600302
-4.6111875	East	-0.096077375
-4.6111875	shipyards	-0.096077375
-4.6111875	Danish	-0.096077375
-4.6111875	squeezed	-0.096077375
-4.6111875	Poos	-0.096077375
-4.6111875	restructure	-0.096077375
-4.6111875	undermine	-0.096077375
-4.6111875	Liberal	-0.096077375
-4.6111875	Democrat	-0.096077375
-4.2452736	emphasise	-0.1474381
-4.6111875	urges	-0.096077375
-4.2452736	aids	-0.096077345
-4.6111875	lawful	-0.096077375
-4.6111875	predict	-0.096077375
-4.2452736	unlawful	-0.096077375
-4.6111875	vigorously	-0.096077375
-4.2452736	repayment	-0.096077375
-4.2452736	MEPs	-0.096077375
-4.6111875	scoreboard	-0.096077375
-4.6111875	showing	-0.096077375
-4.2452736	Monti	-0.11815819
-4.2452736	finding	-0.096077375
-4.0192647	welcome	-0.1474381
-4.6111875	XVIIIth	-0.096077375
-4.2452736	overriding	-0.096077375
-4.0192647	ought	-0.096077345
-4.6111875	openness	-0.096077375
-4.6111875	Liberals	-0.096077375
-4.6111875	Greens	-0.096077375
-4.6111875	try	-0.096077375
-4.6111875	solutions	-0.096077375
-4.6111875	features	-0.096077375
-4.0192647	massive	-0.096077345
-4.6111875	acquisitions	-0.096077375
-4.6111875	emergence	-0.096077375
-4.6111875	frighteningly	-0.096077375
-4.2452736	multinational	-0.20569788
-4.2452736	controls	-0.096077375
-4.6111875	private-sector	-0.096077375
-4.6111875	Certain	-0.096077375
-4.6111875	shipbuilding	-0.096077375
-4.6111875	hit	-0.096077375
-4.6111875	tremendously	-0.096077375
-4.2452736	lost	-0.096077375
-4.6111875	slice	-0.096077375
-4.2452736	hundreds	-0.20569788
-4.6111875	redundant	-0.096077375
-4.6111875	concentration	-0.096077375
-4.2452736	giving	-0.16600302
-4.6111875	speculative	-0.096077375
-4.6111875	size	-0.096077375
-4.2452736	entire	-0.096077375
-4.2452736	weakening	-0.096077375
-4.6111875	tighten	-0.096077375
-4.6111875	qualifying	-0.096077375
-4.6111875	procurement	-0.096077375
-4.6111875	contracts	-0.096077375
-4.6111875	public-sector	-0.096077375
-4.6111875	corporations	-0.096077375
-4.6111875	spiralling	-0.096077375
-4.2452736	loss	-0.20569788
-4.6111875	Workers	-0.096077375
-4.6111875	attack	-0.096077375
-3.6530302	rights	-0.096077375
-4.6111875	Consumers	-0.096077375
-4.6111875	eroded	-0.096077375
-4.6111875	spreading	-0.096077375
-4.6111875	dismantled	-0.096077375
-4.6111875	dissolved	-0.096077375
-4.6111875	name	-0.096077375
-4.6111875	unadulterated	-0.096077375
-4.6111875	catastrophic	-0.096077375
-4.6111875	promotion	-0.096077375
-4.6111875	monopolistic	-0.096077375
-4.6111875	big	-0.096077375
-3.7986348	opposed	-0.44805843
-4.6111875	pivotal	-0.096077375
-3.7986348	single	-0.1949277
-4.2452736	currency	-0.16600302
-4.6111875	deployed	-0.096077375
-4.6111875	birth	-0.096077375
-4.2452736	favourable	-0.096077375
-4.2452736	permitted	-0.096077375
-4.6111875	contributed	-0.096077375
-4.6111875	staunchly	-0.096077375
-4.6111875	bringing	-0.096077375
-4.2452736	advantages	-0.096077375
-4.6111875	shared	-0.096077375
-4.6111875	imprisons	-0.096077375
-4.6111875	artificial	-0.096077375
-4.6111875	straitjacket	-0.096077375
-4.2452736	imposed	-0.096077375
-4.6111875	peoples	-0.096077375
-4.6111875	introduction	-0.096077375
-4.6111875	advisable	-0.096077375
-4.6111875	onerous	-0.096077375
-4.2452736	naturally	-0.096077375
-4.2452736	run	-0.096077375
-4.6111875	counter	-0.096077375
-4.6111875	attempts	-0.096077375
-4.6111875	simplify	-0.096077375
-4.2452736	constraints	-0.096077375
-4.6111875	modernising	-0.096077375
-4.6111875	decentralised	-0.096077375
-4.6111875	retaining	-0.096077375
-4.2452736	jurisdiction	-0.096077375
-4.6111875	obliging	-0.096077375
-4.6111875	jurisdictions	-0.096077375
-4.6111875	disputing	-0.096077375
-4.6111875	National	-0.096077375
-4.6111875	secular	-0.096077375
-4.6111875	arm	-0.096077375
-4.6111875	observance	-0.096077375
-4.2452736	vigilant	-0.20569788
-4.6111875	snowballing	-0.096077375
-4.6111875	Federalism	-0.096077375
-4.2452736	realised	-0.096077375
-4.6111875	sovereignty	-0.096077375
-4.6111875	abolition	-0.096077375
-3.6530302	notification	-0.096077375
-4.2452736	authorisation	-0.20569788
-4.6111875	puzzled	-0.096077375
-4.6111875	First	-0.096077375
-4.6111875	abnormal	-0.096077375
-4.2452736	competition-related	-0.096077345
-4.6111875	tempted	-0.096077375
-4.6111875	resorted	-0.096077375
-4.6111875	else	-0.096077375
-4.6111875	fails	-0.096077375
-4.6111875	ensuring	-0.096077375
-4.6111875	smooth	-0.096077375
-4.6111875	predictable	-0.096077375
-4.0192647	functioning	-0.16600302
-4.2452736	interference	-0.096077375
-4.6111875	workings	-0.096077375
-4.6111875	protectionist	-0.096077375
-4.6111875	heed	-0.096077375
-4.6111875	Eieck	-0.096077375
-4.2452736	Italian	-0.096077345
-4.6111875	liberal	-0.096077375
-4.6111875	Bruno	-0.096077375
-4.6111875	Leoni	-0.096077375
-4.6111875	warned	-0.096077375
-4.6111875	anti-competition	-0.096077375
-4.6111875	hindrances	-0.096077375
-4.2452736	freedom	-0.096077375
-4.6111875	choice	-0.096077375
-4.6111875	users	-0.096077375
-4.6111875	strong	-0.096077375
-4.6111875	presence	-0.096077375
-4.6111875	estimated	-0.096077375
-4.6111875	Treasury	-0.096077375
-4.6111875	stock	-0.096077375
-4.2452736	exchange	-0.096077375
-4.6111875	capitalisation	-0.096077375
-4.6111875	banks	-0.096077375
-4.2452736	obstacles	-0.096077375
-4.6111875	weeks	-0.096077375
-4.6111875	Vodafone	-0.096077375
-4.6111875	bid	-0.096077375
-4.6111875	Mannesmann	-0.096077375
-4.6111875	bailout	-0.096077375
-4.2452736	sections	-0.20569788
-4.2452736	firmly	-0.096077375
-4.6111875	hands	-0.096077375
-4.2452736	ranging	-0.20569788
-4.6111875	funded	-0.096077375
-4.6111875	mandatory	-0.096077375
-4.6111875	Post	-0.096077375
-4.2452736	Office	-0.096077375
-4.6111875	welfare	-0.096077375
-4.2452736	systems	-0.096077375
-4.6111875	managed	-0.096077375
-4.6111875	inefficient	-0.096077375
-4.6111875	no-one	-0.096077375
-4.6111875	wealthy	-0.096077375
-4.6111875	user	-0.096077375
-4.0192647	option	-0.096077345
-4.6111875	insufficiently	-0.096077375
-4.2452736	beginning	-0.096077375
-4.6111875	tenets	-0.096077375
-4.2452736	approvals	-0.096077375
-4.2452736	specialised	-0.096077375
-4.6111875	academics	-0.096077375
-4.2452736	lawyers	-0.20569788
-4.6111875	attended	-0.096077375
-4.6111875	specialists	-0.096077375
-4.6111875	capable	-0.096077375
-4.6111875	prohibitions	-0.096077375
-4.6111875	3	-0.096077375
-4.2452736	prevented	-0.096077375
-4.6111875	coherent	-0.096077375
-4.6111875	preliminary	-0.096077375
-4.6111875	feasibility	-0.096077375
-4.2452736	applying	-0.096077375
-4.0192647	Regulation	-0.16600302
-4.6111875	1762	-0.096077375
-4.6111875	voices	-0.096077375
-4.2452736	unanimous	-0.096077375
-3.7986348	establish	-0.096077375
-4.2452736	limits	-0.096077375
-4.2452736	access	-0.096077375
-4.2452736	interested	-0.20569788
-4.6111875	files	-0.096077375
-4.6111875	defence	-0.096077375
-4.0192647	recognised	-0.096077345
-4.6111875	factors	-0.096077375
-4.2452736	published	-0.20569788
-4.6111875	facilitate	-0.096077375
-4.6111875	frequent	-0.096077375
-4.0192647	criticisms	-0.096077345
-4.6111875	consequence	-0.096077375
-4.6111875	continental	-0.096077375
-4.6111875	tradition	-0.096077375
-4.6111875	anti-competitive	-0.096077375
-4.6111875	depends	-0.096077375
-4.6111875	clauses	-0.096077375
-4.6111875	intends	-0.096077375
-4.6111875	repealed	-0.096077375
-4.6111875	replaced	-0.096077375
-4.6111875	stripped	-0.096077375
-4.2452736	inconsistent	-0.096077375
-4.2452736	document	-0.096077375
-4.6111875	rigour	-0.096077375
-4.2452736	functions	-0.096077375
-4.6111875	satisfied	-0.096077375
-4.2452736	acted	-0.096077375
-4.6111875	modification	-0.096077375
-4.6111875	Various	-0.096077375
-4.6111875	justifying	-0.096077375
-4.6111875	dynamics	-0.096077375
-4.6111875	identical	-0.096077375
-4.6111875	Because	-0.096077375
-4.6111875	paradox	-0.096077375
-4.0192647	unfair	-0.16600302
-4.6111875	moved	-0.096077375
-4.6111875	backwards	-0.096077375
-4.6111875	represented	-0.096077375
-4.6111875	compared	-0.096077375
-4.2452736	carried	-0.096077375
-4.6111875	dissected	-0.096077375
-4.6111875	dense	-0.096077375
-4.6111875	concise	-0.096077375
-4.0192647	Basque	-0.096077345
-4.6111875	Country	-0.096077375
-4.2452736	margin	-0.20569788
-4.6111875	virtue	-0.096077375
-4.6111875	manoeuvre	-0.096077375
-4.6111875	discretion	-0.096077375
-4.6111875	maintain	-0.096077375
-4.6111875	suffer	-0.096077375
-4.6111875	insecurity	-0.096077375
-4.2452736	absence	-0.096077375
-4.6111875	anticipate	-0.096077375
-4.6111875	aimed	-0.096077375
-4.6111875	etc	-0.096077375
-4.6111875	approval	-0.096077375
-4.6111875	eight	-0.096077375
-4.6111875	excessively	-0.096077375
-4.6111875	leads	-0.096077375
-4.6111875	affecting	-0.096077375
-4.6111875	generation	-0.096077375
-4.6111875	missing	-0.096077375
-4.2452736	suggest	-0.096077375
-4.2452736	lay	-0.20569788
-4.6111875	investors	-0.096077375
-4.0192647	stress	-0.096077345
-4.2452736	age	-0.20569788
-4.2452736	happening	-0.096077375
-4.2452736	safeguarding	-0.096077375
-4.6111875	Recently	-0.096077375
-4.6111875	noticed	-0.096077375
-4.6111875	principal	-0.096077375
-4.6111875	respected	-0.096077375
-4.0192647	safeguard	-0.096077375
-4.0192647	products	-0.096077345
-4.2452736	British	-0.20569788
-4.6111875	Conservatives	-0.096077375
-4.2452736	core	-0.20569788
-4.6111875	across	-0.096077375
-4.6111875	During	-0.096077375
-4.6111875	acutely	-0.096077375
-4.2452736	determination	-0.096077375
-4.2452736	described	-0.096077375
-4.6111875	daily	-0.096077375
-4.6111875	deeper	-0.096077375
-4.6111875	rhetoric	-0.096077375
-4.2452736	block	-0.096077375
-4.2452736	thorough	-0.096077375
-4.6111875	rigorous	-0.096077375
-4.0192647	undertaken	-0.096077345
-4.6111875	preparation	-0.096077375
-4.0192647	putting	-0.096077345
-4.6111875	thorn	-0.096077375
-4.6111875	side	-0.096077375
-4.6111875	!	-0.096077375
-4.6111875	He	-0.096077375
-4.6111875	earlier	-0.096077375
-4.6111875	So	-0.096077375
-4.6111875	illustrated	-0.096077375
-3.7986348	renationalisation	-0.12963438
-4.6111875	exists	-0.096077375
-4.6111875	happens	-0.096077375
-4.6111875	proves	-0.096077375
-4.6111875	lawyer	-0.096077375
-4.6111875	minister	-0.096077375
-4.6111875	histories	-0.096077375
-4.6111875	implications	-0.096077345
-4.2452736	cost-benefit	-0.16600302
-4.6111875	sort	-0.096077375
-4.0192647	independent	-0.096077375
-4.0192647	authority	-0.096077375
-4.6111875	integration	-0.096077375
-4.6111875	began	-0.096077375
-4.6111875	integral	-0.096077375
-4.6111875	tension	-0.096077375
-4.6111875	inherent	-0.096077375
-4.2452736	concept	-0.096077375
-4.6111875	solidarity	-0.096077375
-4.0192647	creating	-0.16600302
-4.6111875	entity	-0.096077375
-4.6111875	proud	-0.096077375
-4.2452736	reality	-0.096077375
-4.6111875	nation-states	-0.096077375
-4.6111875	impose	-0.096077375
-4.6111875	writer	-0.096077375
-4.6111875	Vivienne	-0.096077375
-4.6111875	Forestier	-0.096077375
-4.6111875	reign	-0.096077375
-4.6111875	terror	-0.096077375
-4.6111875	alliances	-0.096077375
-4.6111875	USD	-0.096077375
-4.6111875	400	-0.096077375
-4.6111875	take-overs	-0.096077375
-4.0192647	restrictive	-0.16600302
-4.6111875	practices	-0.096077375
-4.6111875	bilateral	-0.096077375
-4.6111875	USA	-0.096077375
-4.0192647	prices	-0.16600302
-4.6111875	overdue	-0.096077375
-4.6111875	underline	-0.096077375
-4.2452736	consumer	-0.20569788
-4.6111875	non-governmental	-0.096077375
-4.6111875	associations	-0.096077375
-4.6111875	Greater	-0.096077375
-4.6111875	Then	-0.096077375
-4.6111875	electricity	-0.096077375
-4.6111875	telecommunications	-0.096077375
-4.6111875	pilloried	-0.096077375
-4.6111875	bound	-0.096077375
-4.6111875	Emphasis	-0.096077375
-4.6111875	organise	-0.096077375
-4.2452736	tasks	-0.096077345
-4.6111875	ownership	-0.096077375
-4.6111875	offsetting	-0.096077375
-4.6111875	furthering	-0.096077375
-4.6111875	creates	-0.096077375
-4.6111875	affords	-0.096077375
-4.6111875	shadow	-0.096077375
-4.2452736	discipline	-0.096077375
-4.6111875	deterrent	-0.096077375
-4.2452736	requirement	-0.096077375
-4.6111875	glad	-0.096077375
-4.6111875	Randzio-Plath	-0.096077375
-4.2452736	speaker	-0.096077375
-4.6111875	advent	-0.096077375
-4.6111875	unleashed	-0.096077375
-4.2452736	enormous	-0.096077375
-4.0192647	merger	-0.096077345
-4.6111875	wave	-0.096077375
-4.6111875	unprecedented	-0.096077375
-4.6111875	proportions	-0.096077375
-4.6111875	1.4	-0.096077375
-4.6111875	trillion	-0.096077375
-4.6111875	seven	-0.096077375
-4.6111875	peak	-0.096077375
-4.6111875	boom	-0.096077375
-4.6111875	1990	-0.096077375
-4.6111875	poses	-0.096077375
-4.2452736	designed	-0.20569788
-4.6111875	profit	-0.096077375
-4.6111875	enhance	-0.096077375
-4.2452736	operate	-0.096077375
-4.6111875	bigger	-0.096077375
-4.6111875	tremendous	-0.096077375
-4.6111875	ahead	-0.096077375
-4.2452736	worries	-0.096077375
-4.6111875	ELDR	-0.096077375
-4.6111875	thrust	-0.096077375
-4.6111875	Delegation	-0.096077375
-4.6111875	slippage	-0.096077375
-4.2452736	element	-0.096077375
-4.6111875	random	-0.096077375
-4.6111875	checks	-0.096077375
-4.6111875	directed	-0.096077375
-4.6111875	persecution	-0.096077375
-4.6111875	discrepancy	-0.096077375
-4.6111875	stems	-0.096077375
-4.2452736	continues	-0.20569788
-4.6111875	misunderstand	-0.096077375
-4.6111875	character	-0.096077375
-4.6111875	co-responsibility	-0.096077375
-4.2452736	fiscal	-0.096077375
-4.6111875	tax-payers	-0.096077375
-4.6111875	external	-0.096077375
-4.6111875	exactly	-0.096077375
-4.6111875	smooth-running	-0.096077375
-4.6111875	healthcare	-0.096077375
-4.2452736	justice	-0.096077375
-4.6111875	management	-0.096077375
